<?xml version="1.0"?>
<MethodSetup Method="BDT::BDTG">
  <GeneralInfo>
    <Info name="TMVA Release" value="4.2.1 [262657]"/>
    <Info name="ROOT Release" value="6.06/01 [394753]"/>
    <Info name="Creator" value="peruzzi"/>
    <Info name="Date" value="Sat Jan 14 12:19:01 2017"/>
    <Info name="Host" value="Linux vocms0315.cern.ch 2.6.32-573.26.1.el6.x86_64 #1 SMP Wed May 4 09:23:05 CEST 2016 x86_64 x86_64 x86_64 GNU/Linux"/>
    <Info name="Dir" value="/data/peruzzi/lepMVA_80X_training_ttH_MoriondMC"/>
    <Info name="Training events" value="1363409"/>
    <Info name="TrainingTime" value="1.24099995e+03"/>
    <Info name="AnalysisType" value="Classification"/>
  </GeneralInfo>
  <Options>
    <Option name="V" modified="Yes">False</Option>
    <Option name="VerbosityLevel" modified="No">Default</Option>
    <Option name="VarTransform" modified="No">None</Option>
    <Option name="H" modified="Yes">False</Option>
    <Option name="CreateMVAPdfs" modified="Yes">True</Option>
    <Option name="IgnoreNegWeightsInTraining" modified="No">False</Option>
    <Option name="NTrees" modified="Yes">500</Option>
    <Option name="MaxDepth" modified="Yes">2</Option>
    <Option name="MinNodeSize" modified="No">0.0073353.2</Option>
    <Option name="nCuts" modified="Yes">2000</Option>
    <Option name="BoostType" modified="Yes">Grad</Option>
    <Option name="AdaBoostR2Loss" modified="No">quadratic</Option>
    <Option name="UseBaggedBoost" modified="No">False</Option>
    <Option name="Shrinkage" modified="Yes">1.000000e-01</Option>
    <Option name="AdaBoostBeta" modified="No">5.000000e-01</Option>
    <Option name="UseRandomisedTrees" modified="No">False</Option>
    <Option name="UseNvars" modified="Yes">9</Option>
    <Option name="UsePoissonNvars" modified="No">True</Option>
    <Option name="BaggedSampleFraction" modified="No">6.000000e-01</Option>
    <Option name="UseYesNoLeaf" modified="No">True</Option>
    <Option name="NegWeightTreatment" modified="No">ignorenegweightsintraining</Option>
    <Option name="Css" modified="No">1.000000e+00</Option>
    <Option name="Cts_sb" modified="No">1.000000e+00</Option>
    <Option name="Ctb_ss" modified="No">1.000000e+00</Option>
    <Option name="Cbb" modified="No">1.000000e+00</Option>
    <Option name="NodePurityLimit" modified="No">5.000000e-01</Option>
    <Option name="SeparationType" modified="No">giniindex</Option>
    <Option name="DoBoostMonitor" modified="No">False</Option>
    <Option name="UseFisherCuts" modified="No">False</Option>
    <Option name="MinLinCorrForFisher" modified="No">8.000000e-01</Option>
    <Option name="UseExclusiveVars" modified="No">False</Option>
    <Option name="DoPreselection" modified="No">False</Option>
    <Option name="SigToBkgFraction" modified="No">1.000000e+00</Option>
    <Option name="PruneMethod" modified="No">nopruning</Option>
    <Option name="PruneStrength" modified="No">0.000000e+00</Option>
    <Option name="PruningValFraction" modified="No">5.000000e-01</Option>
    <Option name="nEventsMin" modified="Yes">100</Option>
    <Option name="UseBaggedGrad" modified="Yes">False</Option>
    <Option name="GradBaggingFraction" modified="No">6.000000e-01</Option>
    <Option name="UseNTrainEvents" modified="No">0</Option>
    <Option name="NNodesMax" modified="Yes">9</Option>
  </Options>
  <Variables NVar="12">
    <Variable VarIndex="0" Expression="LepGood_pt" Label="LepGood_pt" Title="LepGood_pt" Unit="" Internal="LepGood_pt" Type="D" Min="7.00002003e+00" Max="1.08186792e+03"/>
    <Variable VarIndex="1" Expression="LepGood_eta" Label="LepGood_eta" Title="LepGood_eta" Unit="" Internal="LepGood_eta" Type="D" Min="-2.49998474e+00" Max="2.49999976e+00"/>
    <Variable VarIndex="2" Expression="LepGood_jetNDauChargedMVASel" Label="LepGood_jetNDauChargedMVASel" Title="LepGood_jetNDauChargedMVASel" Unit="" Internal="LepGood_jetNDauChargedMVASel" Type="D" Min="0.00000000e+00" Max="3.00000000e+01"/>
    <Variable VarIndex="3" Expression="LepGood_miniRelIsoCharged" Label="LepGood_miniRelIsoCharged" Title="LepGood_miniRelIsoCharged" Unit="" Internal="LepGood_miniRelIsoCharged" Type="D" Min="0.00000000e+00" Max="3.99993956e-01"/>
    <Variable VarIndex="4" Expression="LepGood_miniRelIsoNeutral" Label="LepGood_miniRelIsoNeutral" Title="LepGood_miniRelIsoNeutral" Unit="" Internal="LepGood_miniRelIsoNeutral" Type="D" Min="0.00000000e+00" Max="3.99999529e-01"/>
    <Variable VarIndex="5" Expression="LepGood_jetPtRelv2" Label="LepGood_jetPtRelv2" Title="LepGood_jetPtRelv2" Unit="" Internal="LepGood_jetPtRelv2" Type="D" Min="0.00000000e+00" Max="9.18206909e+02"/>
    <Variable VarIndex="6" Expression="min(LepGood_jetPtRatiov2,1.5)" Label="LepGood_jetPtRatio" Title="LepGood_jetPtRatio" Unit="" Internal="LepGood_jetPtRatio" Type="D" Min="1.61981191e-02" Max="1.50000000e+00"/>
    <Variable VarIndex="7" Expression="max(LepGood_jetBTagCSV,0)" Label="LepGood_jetBTagCSV" Title="LepGood_jetBTagCSV" Unit="" Internal="LepGood_jetBTagCSV" Type="D" Min="0.00000000e+00" Max="9.99626637e-01"/>
    <Variable VarIndex="8" Expression="LepGood_sip3d" Label="LepGood_sip3d" Title="LepGood_sip3d" Unit="" Internal="LepGood_sip3d" Type="D" Min="2.43054281e-04" Max="7.99998713e+00"/>
    <Variable VarIndex="9" Expression="log(abs(LepGood_dxy))" Label="LepGood_dxy" Title="LepGood_dxy" Unit="" Internal="LepGood_dxy" Type="D" Min="-1.92262688e+01" Max="-2.99573874e+00"/>
    <Variable VarIndex="10" Expression="log(abs(LepGood_dz))" Label="LepGood_dz" Title="LepGood_dz" Unit="" Internal="LepGood_dz" Type="D" Min="-1.89681759e+01" Max="-2.30258656e+00"/>
    <Variable VarIndex="11" Expression="LepGood_mvaIdSpring16HZZ" Label="LepGood_mvaIdSpring16HZZ" Title="LepGood_mvaIdSpring16HZZ" Unit="" Internal="LepGood_mvaIdSpring16HZZ" Type="D" Min="-9.99564171e-01" Max="9.99597847e-01"/>
  </Variables>
  <Spectators NSpec="0"/>
  <Classes NClass="2">
    <Class Name="Signal" Index="0"/>
    <Class Name="Background" Index="1"/>
  </Classes>
  <Transformations NTransformations="0"/>
  <MVAPdfs>
    <PDF Name="BDTG_PDFSig" MinNSmooth="0" MaxNSmooth="0" InterpolMethod="2" KDE_type="1" KDE_iter="1" KDE_border="1" KDE_finefactor="1.0000000000000000e+00">
      <Histogram Name="BDT_tr_S_original" NBins="27268" XMin="-9.9940961599349976e-01" XMax="9.9689382314682007e-01" HasEquidistantBins="1">
        0.00000000e+00 0.00000000e+00 0.00000000e+00 0.00000000e+00 0.00000000e+00 0.00000000e+00 0.00000000e+00 0.00000000e+00 0.00000000e+00 0.00000000e+00 0.00000000e+00 4.46349960e-02 0.00000000e+00 0.00000000e+00 0.00000000e+00 0.00000000e+00 4.46349960e-02 4.46349960e-02 0.00000000e+00 0.00000000e+00 0.00000000e+00 0.00000000e+00 4.46349960e-02 0.00000000e+00 4.46349960e-02 0.00000000e+00 4.46349960e-02 0.00000000e+00 0.00000000e+00 4.46349960e-02 4.46349960e-02 0.00000000e+00 0.00000000e+00 4.46349960e-02 0.00000000e+00 4.46349960e-02 0.00000000e+00 0.00000000e+00 4.46349960e-02 4.46349960e-02 1.33904988e-01 8.92699920e-02 0.00000000e+00 0.00000000e+00 0.00000000e+00 4.46349960e-02 8.92699920e-02 0.00000000e+00 4.46349960e-02 4.46349960e-02 0.00000000e+00 8.92699920e-02 4.46349960e-02 0.00000000e+00 4.46349960e-02 4.46349960e-02 4.46349960e-02 0.00000000e+00 0.00000000e+00 0.00000000e+00 8.92699920e-02 4.46349960e-02 0.00000000e+00 0.00000000e+00 4.46349960e-02 8.92699920e-02 8.92699920e-02 4.46349960e-02 0.00000000e+00 0.00000000e+00 8.92699920e-02 1.33904988e-01 8.92699920e-02 8.92699920e-02 8.92699920e-02 0.00000000e+00 0.00000000e+00 4.46349960e-02 4.46349960e-02 0.00000000e+00 4.46349960e-02 1.33904988e-01 3.12444972e-01 8.92699920e-02 1.33904988e-01 4.46349960e-02 0.00000000e+00 8.92699920e-02 4.46349960e-02 8.92699920e-02 4.46349960e-02 4.46349960e-02 4.46349960e-02 4.46349960e-02 4.46349960e-02 0.00000000e+00 4.46349960e-02 8.92699920e-02 0.00000000e+00 4.46349960e-02 4.46349960e-02 8.92699920e-02 4.46349960e-02 4.46349960e-02 4.46349960e-02 1.78539984e-01 8.92699920e-02 4.46349960e-02 1.33904988e-01 8.92699920e-02 4.46349960e-02 8.92699920e-02 0.00000000e+00 8.92699920e-02 1.33904988e-01 0.00000000e+00 4.46349960e-02 1.78539984e-01 1.78539984e-01 8.92699920e-02 8.92699920e-02 8.92699920e-02 -4.46349960e-02 1.33904988e-01 8.92699920e-02 0.00000000e+00 4.46349960e-02 1.33904988e-01 2.23174980e-01 8.92699920e-02 0.00000000e+00 4.46349960e-02 4.46349960e-02 8.92699920e-02 1.33904988e-01 8.92699920e-02 1.33904988e-01 4.46349960e-02 1.33904988e-01 1.78539984e-01 0.00000000e+00 4.46349960e-02 8.92699920e-02 1.33904988e-01 8.92699920e-02 0.00000000e+00 1.33904988e-01 4.46349960e-02 8.92699920e-02 0.00000000e+00 1.33904988e-01 1.78539984e-01 1.78539984e-01 8.92699920e-02 4.46349960e-02 8.92699920e-02 4.46349960e-02 8.92699920e-02 0.00000000e+00 8.92699920e-02 1.78539984e-01 2.67809976e-01 8.92699920e-02 8.92699920e-02 2.23174980e-01 8.92699920e-02 0.00000000e+00 8.92699920e-02 1.33904988e-01 8.92699920e-02 8.92699920e-02 4.46349960e-02 8.92699920e-02 8.92699920e-02 1.33904988e-01 8.92699920e-02 8.92699920e-02 1.78539984e-01 1.33904988e-01 1.78539984e-01 1.78539984e-01 1.33904988e-01 8.92699920e-02 8.92699920e-02 0.00000000e+00 4.46349960e-02 8.92699920e-02 0.00000000e+00 1.78539984e-01 8.92699920e-02 8.92699920e-02 0.00000000e+00 1.33904988e-01 1.33904988e-01 2.23174980e-01 4.46349960e-02 2.23174980e-01 4.46349960e-02 8.92699920e-02 1.78539984e-01 8.92699920e-02 1.33904988e-01 1.78539984e-01 8.92699920e-02 1.33904988e-01 2.23174980e-01 0.00000000e+00 8.92699920e-02 8.92699920e-02 1.33904988e-01 8.92699920e-02 0.00000000e+00 8.92699920e-02 1.78539984e-01 0.00000000e+00 1.33904988e-01 4.46349960e-02 1.33904988e-01 1.78539984e-01 0.00000000e+00 4.46349960e-02 2.67809976e-01 1.33904988e-01 1.33904988e-01 0.00000000e+00 8.92699920e-02 1.33904988e-01 4.46349960e-02 4.46349960e-02 1.78539984e-01 8.92699920e-02 0.00000000e+00 4.46349960e-02 3.12444972e-01 8.92699920e-02 1.33904988e-01 2.23174980e-01 1.78539984e-01 0.00000000e+00 4.46349960e-02 0.00000000e+00 8.92699920e-02 8.92699920e-02 2.23174980e-01 2.23174980e-01 0.00000000e+00 4.46349960e-02 1.33904988e-01 8.92699920e-02 8.92699920e-02 1.33904988e-01 2.23174980e-01 4.46349960e-02 8.92699920e-02 8.92699920e-02 4.46349960e-02 2.23174980e-01 4.46349960e-02 1.33904988e-01 2.23174980e-01 8.92699920e-02 4.46349960e-02 8.92699920e-02 2.23174980e-01 1.33904988e-01 4.46349960e-02 1.33904988e-01 0.00000000e+00 1.78539984e-01 4.46349960e-02 1.78539984e-01 8.92699920e-02 8.92699920e-02 2.23174980e-01 3.57079968e-01 1.78539984e-01 1.78539984e-01 8.92699920e-02 8.92699920e-02 2.23174980e-01 0.00000000e+00 4.46349960e-02 4.46349960e-02 1.33904988e-01 1.33904988e-01 1.33904988e-01 1.78539984e-01 1.33904988e-01 1.33904988e-01 2.23174980e-01 4.46349960e-02 4.46349960e-02 2.23174980e-01 4.46349960e-02 4.46349960e-02 1.33904988e-01 8.92699920e-02 0.00000000e+00 4.46349960e-02 8.92699920e-02 1.78539984e-01 0.00000000e+00 1.78539984e-01 1.33904988e-01 8.92699920e-02 1.78539984e-01 4.46349960e-02 1.78539984e-01 8.92699920e-02 0.00000000e+00 8.92699920e-02 8.92699920e-02 8.92699920e-02 8.92699920e-02 4.46349960e-02 1.33904988e-01 8.92699920e-02 4.46349960e-02 4.46349960e-02 4.46349960e-02 8.92699920e-02 8.92699920e-02 4.46349960e-02 1.33904988e-01 4.46349960e-02 8.92699920e-02 -4.46349960e-02 8.92699920e-02 8.92699920e-02 2.67809976e-01 4.46349960e-02 1.78539984e-01 4.46349960e-02 4.46349960e-02 0.00000000e+00 1.33904988e-01 2.67809976e-01 4.46349960e-02 1.33904988e-01 0.00000000e+00 1.33904988e-01 8.92699920e-02 8.92699920e-02 8.92699920e-02 1.33904988e-01 4.46349960e-02 1.33904988e-01 1.33904988e-01 4.46349960e-02 1.33904988e-01 0.00000000e+00 8.92699920e-02 1.33904988e-01 1.33904988e-01 1.33904988e-01 8.92699920e-02 2.23174980e-01 2.23174980e-01 1.78539984e-01 1.33904988e-01 4.46349960e-02 1.78539984e-01 4.46349960e-02 8.92699920e-02 0.00000000e+00 8.92699920e-02 8.92699920e-02 8.92699920e-02 1.78539984e-01 4.46349960e-02 1.78539984e-01 1.78539984e-01 1.78539984e-01 1.33904988e-01 2.23174980e-01 8.92699920e-02 8.92699920e-02 8.92699920e-02 1.78539984e-01 4.46349960e-02 8.92699920e-02 0.00000000e+00 8.92699920e-02 8.92699920e-02 2.23174980e-01 4.46349960e-02 1.78539984e-01 1.33904988e-01 0.00000000e+00 2.67809976e-01 8.92699920e-02 4.46349960e-02 1.33904988e-01 0.00000000e+00 1.33904988e-01 1.78539984e-01 1.78539984e-01 4.46349960e-02 8.92699920e-02 1.78539984e-01 1.78539984e-01 1.33904988e-01 4.46349960e-02 4.46349960e-02 2.23174980e-01 1.33904988e-01 0.00000000e+00 8.92699920e-02 1.33904988e-01 1.33904988e-01 1.33904988e-01 0.00000000e+00 8.92699920e-02 2.67809976e-01 1.78539984e-01 8.92699920e-02 1.78539984e-01 4.46349960e-02 4.46349960e-02 0.00000000e+00 0.00000000e+00 8.92699920e-02 0.00000000e+00 0.00000000e+00 2.23174980e-01 1.33904988e-01 1.33904988e-01 4.46349960e-02 8.92699920e-02 8.92699920e-02 8.92699920e-02 0.00000000e+00 1.78539984e-01 1.33904988e-01 1.33904988e-01 1.33904988e-01 4.46349960e-02 0.00000000e+00 1.33904988e-01 0.00000000e+00 1.33904988e-01 1.33904988e-01 1.78539984e-01 1.78539984e-01 4.46349960e-02 1.78539984e-01 8.92699920e-02 1.33904988e-01 1.33904988e-01 8.92699920e-02 8.92699920e-02 4.46349960e-02 8.92699920e-02 0.00000000e+00 4.46349960e-02 1.78539984e-01 8.92699920e-02 0.00000000e+00 0.00000000e+00 0.00000000e+00 1.33904988e-01 1.33904988e-01 4.46349960e-02 1.78539984e-01 4.46349960e-02 0.00000000e+00 0.00000000e+00 8.92699920e-02 1.78539984e-01 8.92699920e-02 1.33904988e-01 8.92699920e-02 4.46349960e-02 0.00000000e+00 0.00000000e+00 1.78539984e-01 1.33904988e-01 1.33904988e-01 4.46349960e-02 4.46349960e-02 8.92699920e-02 1.78539984e-01 2.67809976e-01 8.92699920e-02 4.46349960e-02 4.46349960e-02 4.46349960e-02 0.00000000e+00 8.92699920e-02 4.46349960e-02 1.33904988e-01 8.92699920e-02 1.78539984e-01 8.92699920e-02 4.46349960e-02 3.12444972e-01 1.78539984e-01 4.46349960e-02 1.33904988e-01 1.78539984e-01 8.92699920e-02 2.67809976e-01 8.92699920e-02 8.92699920e-02 2.67809976e-01 1.33904988e-01 0.00000000e+00 4.46349960e-02 1.33904988e-01 4.46349960e-02 1.33904988e-01 1.78539984e-01 4.46349960e-02 1.33904988e-01 1.78539984e-01 2.23174980e-01 8.92699920e-02 1.78539984e-01 1.78539984e-01 1.78539984e-01 1.33904988e-01 4.46349960e-02 4.46349960e-02 8.92699920e-02 1.33904988e-01 1.33904988e-01 4.46349960e-02 4.46349960e-02 8.92699920e-02 2.23174980e-01 8.92699920e-02 1.78539984e-01 0.00000000e+00 1.78539984e-01 4.46349960e-02 0.00000000e+00 2.23174980e-01 4.46349960e-02 8.92699920e-02 2.23174980e-01 1.33904988e-01 8.92699920e-02 1.33904988e-01 4.46349960e-02 1.78539984e-01 2.23174980e-01 1.78539984e-01 0.00000000e+00 4.46349960e-02 8.92699920e-02 1.78539984e-01 1.33904988e-01 8.92699920e-02 4.46349960e-02 8.92699920e-02 4.46349960e-02 8.92699920e-02 4.46349960e-02 4.46349960e-02 4.46349960e-02 8.92699920e-02 4.46349960e-02 8.92699920e-02 8.92699920e-02 4.46349960e-02 1.78539984e-01 1.78539984e-01 1.33904988e-01 8.92699920e-02 8.92699920e-02 1.78539984e-01 1.33904988e-01 4.46349960e-02 0.00000000e+00 8.92699920e-02 8.92699920e-02 1.33904988e-01 1.78539984e-01 8.92699920e-02 1.33904988e-01 4.46349960e-02 1.78539984e-01 8.92699920e-02 8.92699920e-02 1.33904988e-01 2.23174980e-01 8.92699920e-02 1.33904988e-01 0.00000000e+00 4.46349960e-02 4.46349960e-02 4.46349960e-02 0.00000000e+00 4.46349960e-02 8.92699920e-02 0.00000000e+00 4.46349960e-02 4.46349960e-02 8.92699920e-02 8.92699920e-02 1.78539984e-01 1.78539984e-01 8.92699920e-02 4.46349960e-02 1.78539984e-01 1.33904988e-01 2.67809976e-01 8.92699920e-02 1.78539984e-01 1.33904988e-01 1.78539984e-01 2.23174980e-01 8.92699920e-02 4.46349960e-01 4.46349960e-02 8.92699920e-02 8.92699920e-02 4.46349960e-02 8.92699920e-02 2.67809976e-01 0.00000000e+00 1.33904988e-01 0.00000000e+00 8.92699920e-02 4.46349960e-02 2.23174980e-01 8.92699920e-02 8.92699920e-02 2.67809976e-01 4.46349960e-02 4.46349960e-02 1.33904988e-01 8.92699920e-02 1.33904988e-01 4.46349960e-02 4.46349960e-02 4.46349960e-02 8.92699920e-02 4.46349960e-02 8.92699920e-02 8.92699920e-02 1.33904988e-01 0.00000000e+00 4.46349960e-02 4.46349960e-02 4.46349960e-02 4.46349960e-02 1.33904988e-01 0.00000000e+00 8.92699920e-02 1.33904988e-01 0.00000000e+00 8.92699920e-02 8.92699920e-02 4.46349960e-02 0.00000000e+00 4.01714964e-01 0.00000000e+00 8.92699920e-02 1.33904988e-01 4.46349960e-02 1.78539984e-01 4.46349960e-02 1.33904988e-01 1.78539984e-01 1.78539984e-01 0.00000000e+00 2.23174980e-01 8.92699920e-02 1.33904988e-01 8.92699920e-02 8.92699920e-02 1.33904988e-01 8.92699920e-02 4.46349960e-02 8.92699920e-02 8.92699920e-02 1.78539984e-01 0.00000000e+00 0.00000000e+00 8.92699920e-02 1.33904988e-01 8.92699920e-02 4.46349960e-02 0.00000000e+00 1.33904988e-01 8.92699920e-02 8.92699920e-02 1.33904988e-01 0.00000000e+00 4.46349960e-02 1.33904988e-01 4.46349960e-02 4.46349960e-02 1.33904988e-01 1.33904988e-01 8.92699920e-02 1.78539984e-01 0.00000000e+00 1.33904988e-01 2.23174980e-01 1.33904988e-01 8.92699920e-02 2.23174980e-01 8.92699920e-02 4.46349960e-02 4.46349960e-02 8.92699920e-02 8.92699920e-02 4.46349960e-02 1.33904988e-01 8.92699920e-02 4.46349960e-02 4.46349960e-02 4.46349960e-02 1.78539984e-01 8.92699920e-02 0.00000000e+00 8.92699920e-02 1.78539984e-01 2.23174980e-01 8.92699920e-02 8.92699920e-02 8.92699920e-02 4.46349960e-02 0.00000000e+00 0.00000000e+00 4.46349960e-02 8.92699920e-02 1.33904988e-01 1.33904988e-01 4.46349960e-02 4.46349960e-02 0.00000000e+00 1.33904988e-01 8.92699920e-02 1.33904988e-01 1.33904988e-01 4.46349960e-02 8.92699920e-02 1.33904988e-01 8.92699920e-02 8.92699920e-02 8.92699920e-02 4.46349960e-02 8.92699920e-02 8.92699920e-02 0.00000000e+00 2.23174980e-01 0.00000000e+00 2.23174980e-01 8.92699920e-02 0.00000000e+00 2.23174980e-01 4.46349960e-02 4.46349960e-02 1.33904988e-01 0.00000000e+00 4.46349960e-02 4.46349960e-02 8.92699920e-02 8.92699920e-02 0.00000000e+00 4.46349960e-02 0.00000000e+00 0.00000000e+00 4.46349960e-02 2.23174980e-01 8.92699920e-02 8.92699920e-02 0.00000000e+00 4.46349960e-02 8.92699920e-02 1.33904988e-01 4.46349960e-02 2.67809976e-01 4.46349960e-02 1.78539984e-01 1.33904988e-01 1.33904988e-01 1.33904988e-01 1.33904988e-01 0.00000000e+00 1.78539984e-01 1.33904988e-01 4.46349960e-02 4.46349960e-02 0.00000000e+00 1.33904988e-01 2.67809976e-01 8.92699920e-02 0.00000000e+00 4.46349960e-02 8.92699920e-02 8.92699920e-02 2.23174980e-01 2.67809976e-01 4.46349960e-02 2.23174980e-01 1.33904988e-01 8.92699920e-02 8.92699920e-02 2.23174980e-01 4.46349960e-02 4.46349960e-02 8.92699920e-02 8.92699920e-02 2.23174980e-01 1.33904988e-01 0.00000000e+00 1.33904988e-01 2.67809976e-01 0.00000000e+00 2.23174980e-01 1.33904988e-01 1.33904988e-01 8.92699920e-02 2.67809976e-01 0.00000000e+00 8.92699920e-02 8.92699920e-02 4.46349960e-02 4.46349960e-02 1.33904988e-01 8.92699920e-02 4.46349960e-02 8.92699920e-02 8.92699920e-02 4.46349960e-02 1.33904988e-01 0.00000000e+00 1.78539984e-01 1.78539984e-01 1.33904988e-01 4.46349960e-02 2.67809976e-01 4.46349960e-02 2.67809976e-01 0.00000000e+00 0.00000000e+00 4.46349960e-02 1.78539984e-01 4.46349960e-02 2.67809976e-01 4.46349960e-02 1.78539984e-01 1.33904988e-01 4.46349960e-02 4.46349960e-02 8.92699920e-02 4.46349960e-02 8.92699920e-02 0.00000000e+00 0.00000000e+00 4.46349960e-02 0.00000000e+00 8.92699920e-02 2.23174980e-01 1.78539984e-01 4.46349960e-02 4.46349960e-02 0.00000000e+00 1.33904988e-01 2.23174980e-01 1.33904988e-01 1.33904988e-01 1.78539984e-01 4.46349960e-02 8.92699920e-02 1.33904988e-01 2.67809976e-01 1.78539984e-01 0.00000000e+00 8.92699920e-02 1.33904988e-01 0.00000000e+00 2.67809976e-01 8.92699920e-02 1.33904988e-01 1.33904988e-01 8.92699920e-02 8.92699920e-02 1.33904988e-01 4.46349960e-02 1.33904988e-01 0.00000000e+00 8.92699920e-02 4.46349960e-02 1.33904988e-01 1.33904988e-01 2.67809976e-01 0.00000000e+00 0.00000000e+00 8.92699920e-02 8.92699920e-02 1.78539984e-01 0.00000000e+00 0.00000000e+00 8.92699920e-02 1.33904988e-01 0.00000000e+00 1.33904988e-01 1.33904988e-01 2.23174980e-01 4.46349960e-02 1.78539984e-01 1.78539984e-01 1.78539984e-01 1.33904988e-01 1.33904988e-01 4.46349960e-02 1.78539984e-01 4.46349960e-02 1.33904988e-01 8.92699920e-02 4.46349960e-02 8.92699920e-02 8.92699920e-02 2.23174980e-01 8.92699920e-02 0.00000000e+00 0.00000000e+00 8.92699920e-02 8.92699920e-02 8.92699920e-02 4.46349960e-02 1.78539984e-01 8.92699920e-02 4.46349960e-02 1.78539984e-01 4.46349960e-02 4.46349960e-02 3.12444972e-01 4.46349960e-02 8.92699920e-02 4.46349960e-02 4.46349960e-02 8.92699920e-02 4.46349960e-02 1.78539984e-01 1.78539984e-01 4.46349960e-02 8.92699920e-02 4.46349960e-02 2.23174980e-01 1.78539984e-01 1.78539984e-01 8.92699920e-02 2.23174980e-01 8.92699920e-02 4.46349960e-02 1.33904988e-01 1.33904988e-01 8.92699920e-02 1.33904988e-01 1.33904988e-01 1.33904988e-01 1.78539984e-01 8.92699920e-02 0.00000000e+00 8.92699920e-02 2.67809976e-01 1.78539984e-01 0.00000000e+00 0.00000000e+00 8.92699920e-02 1.33904988e-01 0.00000000e+00 4.46349960e-02 1.33904988e-01 4.46349960e-02 4.46349960e-02 8.92699920e-02 4.46349960e-02 0.00000000e+00 1.78539984e-01 8.92699920e-02 4.46349960e-02 1.78539984e-01 4.46349960e-02 1.78539984e-01 8.92699920e-02 2.23174980e-01 1.33904988e-01 1.33904988e-01 2.23174980e-01 1.78539984e-01 4.46349960e-02 8.92699920e-02 2.67809976e-01 8.92699920e-02 0.00000000e+00 8.92699920e-02 0.00000000e+00 0.00000000e+00 4.46349960e-02 1.78539984e-01 4.46349960e-02 4.46349960e-02 8.92699920e-02 4.46349960e-02 4.46349960e-02 0.00000000e+00 1.33904988e-01 8.92699920e-02 1.33904988e-01 0.00000000e+00 8.92699920e-02 8.92699920e-02 8.92699920e-02 1.33904988e-01 4.46349960e-02 4.46349960e-02 1.78539984e-01 1.78539984e-01 4.46349960e-02 1.33904988e-01 8.92699920e-02 1.33904988e-01 4.46349960e-02 1.33904988e-01 0.00000000e+00 2.67809976e-01 8.92699920e-02 4.46349960e-02 2.23174980e-01 8.92699920e-02 0.00000000e+00 1.78539984e-01 4.46349960e-02 8.92699920e-02 0.00000000e+00 4.46349960e-02 1.78539984e-01 4.46349960e-02 1.78539984e-01 3.12444972e-01 1.78539984e-01 8.92699920e-02 4.46349960e-02 8.92699920e-02 4.46349960e-02 8.92699920e-02 8.92699920e-02 4.46349960e-02 1.33904988e-01 1.33904988e-01 4.46349960e-02 0.00000000e+00 1.33904988e-01 8.92699920e-02 8.92699920e-02 4.46349960e-02 4.46349960e-02 2.23174980e-01 8.92699920e-02 4.46349960e-02 8.92699920e-02 8.92699920e-02 1.78539984e-01 2.23174980e-01 4.46349960e-02 1.33904988e-01 1.33904988e-01 4.46349960e-02 8.92699920e-02 1.33904988e-01 1.78539984e-01 2.23174980e-01 8.92699920e-02 0.00000000e+00 8.92699920e-02 8.92699920e-02 1.78539984e-01 2.67809976e-01 1.33904988e-01 4.46349960e-02 3.12444972e-01 1.33904988e-01 8.92699920e-02 8.92699920e-02 8.92699920e-02 8.92699920e-02 1.33904988e-01 8.92699920e-02 1.33904988e-01 1.78539984e-01 2.23174980e-01 2.23174980e-01 1.33904988e-01 1.78539984e-01 8.92699920e-02 2.23174980e-01 2.23174980e-01 0.00000000e+00 8.92699920e-02 1.33904988e-01 2.23174980e-01 4.01714964e-01 4.46349960e-02 1.33904988e-01 8.92699920e-02 4.46349960e-02 0.00000000e+00 1.33904988e-01 8.92699920e-02 1.33904988e-01 1.33904988e-01 1.78539984e-01 8.92699920e-02 4.46349960e-02 1.33904988e-01 4.46349960e-02 1.33904988e-01 1.78539984e-01 8.92699920e-02 8.92699920e-02 1.78539984e-01 2.23174980e-01 1.33904988e-01 2.23174980e-01 8.92699920e-02 1.33904988e-01 1.33904988e-01 4.46349960e-02 4.46349960e-02 0.00000000e+00 8.92699920e-02 8.92699920e-02 4.46349960e-02 8.92699920e-02 8.92699920e-02 4.46349960e-02 1.78539984e-01 8.92699920e-02 4.46349960e-02 4.46349960e-02 4.46349960e-02 3.12444972e-01 1.33904988e-01 4.46349960e-02 1.33904988e-01 4.46349960e-02 1.78539984e-01 8.92699920e-02 4.46349960e-02 8.92699920e-02 8.92699920e-02 8.92699920e-02 2.67809976e-01 8.92699920e-02 1.33904988e-01 1.33904988e-01 1.33904988e-01 4.46349960e-02 4.46349960e-02 1.33904988e-01 8.92699920e-02 4.46349960e-02 2.23174980e-01 8.92699920e-02 1.33904988e-01 0.00000000e+00 4.46349960e-02 4.46349960e-02 1.33904988e-01 4.46349960e-02 8.92699920e-02 8.92699920e-02 2.23174980e-01 0.00000000e+00 8.92699920e-02 1.33904988e-01 2.23174980e-01 2.23174980e-01 8.92699920e-02 1.78539984e-01 1.33904988e-01 4.46349960e-02 1.33904988e-01 8.92699920e-02 8.92699920e-02 8.92699920e-02 0.00000000e+00 0.00000000e+00 1.78539984e-01 1.78539984e-01 2.23174980e-01 8.92699920e-02 8.92699920e-02 8.92699920e-02 4.46349960e-02 1.33904988e-01 8.92699920e-02 0.00000000e+00 1.78539984e-01 4.46349960e-02 8.92699920e-02 1.33904988e-01 4.46349960e-02 8.92699920e-02 4.46349960e-02 1.33904988e-01 8.92699920e-02 0.00000000e+00 1.33904988e-01 1.78539984e-01 1.33904988e-01 1.33904988e-01 1.78539984e-01 4.46349960e-02 8.92699920e-02 8.92699920e-02 4.46349960e-02 1.78539984e-01 8.92699920e-02 4.46349960e-02 1.33904988e-01 1.33904988e-01 8.92699920e-02 1.33904988e-01 1.33904988e-01 8.92699920e-02 4.46349960e-02 2.67809976e-01 4.46349960e-02 8.92699920e-02 8.92699920e-02 8.92699920e-02 2.23174980e-01 4.46349960e-02 1.78539984e-01 0.00000000e+00 1.78539984e-01 4.46349960e-02 1.33904988e-01 2.23174980e-01 4.46349960e-02 8.92699920e-02 4.46349960e-02 0.00000000e+00 4.46349960e-02 2.23174980e-01 1.33904988e-01 2.23174980e-01 8.92699920e-02 4.46349960e-02 0.00000000e+00 2.23174980e-01 1.33904988e-01 1.78539984e-01 1.33904988e-01 3.12444972e-01 4.46349960e-02 4.46349960e-02 1.78539984e-01 1.33904988e-01 8.92699920e-02 2.23174980e-01 4.46349960e-02 8.92699920e-02 1.33904988e-01 1.33904988e-01 1.33904988e-01 2.23174980e-01 8.92699920e-02 0.00000000e+00 8.92699920e-02 1.33904988e-01 1.33904988e-01 8.92699920e-02 0.00000000e+00 2.23174980e-01 1.33904988e-01 4.46349960e-02 4.46349960e-02 8.92699920e-02 1.78539984e-01 4.46349960e-02 2.23174980e-01 4.46349960e-02 1.78539984e-01 8.92699920e-02 8.92699920e-02 8.92699920e-02 8.92699920e-02 1.33904988e-01 0.00000000e+00 1.33904988e-01 4.46349960e-02 8.92699920e-02 1.33904988e-01 8.92699920e-02 1.33904988e-01 1.33904988e-01 8.92699920e-02 8.92699920e-02 1.78539984e-01 8.92699920e-02 1.33904988e-01 1.33904988e-01 4.46349960e-02 4.46349960e-02 1.78539984e-01 1.78539984e-01 1.33904988e-01 2.67809976e-01 4.46349960e-02 8.92699920e-02 4.46349960e-02 8.92699920e-02 1.78539984e-01 1.78539984e-01 8.92699920e-02 4.46349960e-02 8.92699920e-02 0.00000000e+00 4.46349960e-02 1.33904988e-01 4.46349960e-02 1.78539984e-01 8.92699920e-02 1.78539984e-01 1.78539984e-01 8.92699920e-02 4.46349960e-02 8.92699920e-02 8.92699920e-02 1.33904988e-01 4.46349960e-02 4.01714964e-01 1.33904988e-01 0.00000000e+00 4.46349960e-02 8.92699920e-02 1.33904988e-01 8.92699920e-02 0.00000000e+00 2.23174980e-01 4.46349960e-02 2.23174980e-01 8.92699920e-02 2.23174980e-01 8.92699920e-02 8.92699920e-02 0.00000000e+00 1.78539984e-01 4.46349960e-02 1.33904988e-01 8.92699920e-02 2.23174980e-01 4.46349960e-02 8.92699920e-02 4.46349960e-02 1.33904988e-01 2.67809976e-01 8.92699920e-02 1.33904988e-01 0.00000000e+00 1.33904988e-01 8.92699920e-02 1.78539984e-01 2.23174980e-01 2.23174980e-01 2.23174980e-01 4.46349960e-02 1.78539984e-01 1.78539984e-01 2.67809976e-01 8.92699920e-02 8.92699920e-02 1.78539984e-01 1.33904988e-01 8.92699920e-02 4.46349960e-02 1.78539984e-01 8.92699920e-02 8.92699920e-02 4.46349960e-02 1.33904988e-01 1.33904988e-01 2.23174980e-01 8.92699920e-02 4.46349960e-02 1.33904988e-01 3.12444972e-01 4.46349960e-02 0.00000000e+00 8.92699920e-02 1.33904988e-01 1.78539984e-01 1.78539984e-01 8.92699920e-02 8.92699920e-02 1.78539984e-01 2.67809976e-01 4.46349960e-02 2.67809976e-01 2.23174980e-01 1.78539984e-01 1.78539984e-01 0.00000000e+00 1.33904988e-01 1.78539984e-01 1.33904988e-01 1.33904988e-01 1.78539984e-01 4.46349960e-02 2.67809976e-01 1.33904988e-01 2.23174980e-01 1.33904988e-01 8.92699920e-02 1.33904988e-01 2.23174980e-01 8.92699920e-02 0.00000000e+00 4.46349960e-02 4.46349960e-02 8.92699920e-02 1.33904988e-01 0.00000000e+00 0.00000000e+00 4.46349960e-02 8.92699920e-02 4.46349960e-02 4.46349960e-02 4.46349960e-02 0.00000000e+00 4.46349960e-02 4.46349960e-02 4.46349960e-02 4.46349960e-02 8.92699920e-02 8.92699920e-02 8.92699920e-02 1.33904988e-01 4.46349960e-02 8.92699920e-02 1.78539984e-01 8.92699920e-02 1.33904988e-01 4.46349960e-02 8.92699920e-02 2.67809976e-01 4.46349960e-02 0.00000000e+00 4.46349960e-02 8.92699920e-02 4.46349960e-02 1.33904988e-01 8.92699920e-02 4.46349960e-02 0.00000000e+00 8.92699920e-02 8.92699920e-02 8.92699920e-02 0.00000000e+00 0.00000000e+00 4.46349960e-02 4.46349960e-02 4.46349960e-02 4.46349960e-02 0.00000000e+00 8.92699920e-02 1.33904988e-01 1.78539984e-01 4.46349960e-02 8.92699920e-02 1.33904988e-01 8.92699920e-02 3.12444972e-01 1.33904988e-01 8.92699920e-02 8.92699920e-02 8.92699920e-02 0.00000000e+00 1.33904988e-01 1.33904988e-01 1.33904988e-01 8.92699920e-02 1.78539984e-01 2.23174980e-01 8.92699920e-02 1.33904988e-01 2.67809976e-01 2.23174980e-01 0.00000000e+00 4.46349960e-02 8.92699920e-02 0.00000000e+00 1.33904988e-01 1.78539984e-01 1.33904988e-01 4.46349960e-02 1.78539984e-01 8.92699920e-02 1.78539984e-01 4.46349960e-02 1.33904988e-01 4.46349960e-02 1.33904988e-01 1.33904988e-01 8.92699920e-02 1.33904988e-01 1.33904988e-01 8.92699920e-02 -4.46349960e-02 8.92699920e-02 1.78539984e-01 8.92699920e-02 8.92699920e-02 1.78539984e-01 8.92699920e-02 1.78539984e-01 2.23174980e-01 2.67809976e-01 1.33904988e-01 8.92699920e-02 2.23174980e-01 4.46349960e-02 8.92699920e-02 1.78539984e-01 1.78539984e-01 1.33904988e-01 0.00000000e+00 2.23174980e-01 8.92699920e-02 4.46349960e-02 2.23174980e-01 8.92699920e-02 4.46349960e-02 0.00000000e+00 8.92699920e-02 8.92699920e-02 8.92699920e-02 8.92699920e-02 1.33904988e-01 1.78539984e-01 2.23174980e-01 4.46349960e-02 0.00000000e+00 4.46349960e-02 4.46349960e-02 8.92699920e-02 1.33904988e-01 2.23174980e-01 8.92699920e-02 8.92699920e-02 1.33904988e-01 4.46349960e-02 0.00000000e+00 4.46349960e-02 4.46349960e-02 4.46349960e-02 0.00000000e+00 1.78539984e-01 2.67809976e-01 8.92699920e-02 1.33904988e-01 1.33904988e-01 0.00000000e+00 0.00000000e+00 1.78539984e-01 1.78539984e-01 4.46349960e-02 8.92699920e-02 1.33904988e-01 8.92699920e-02 4.46349960e-02 1.78539984e-01 4.46349960e-02 4.46349960e-02 0.00000000e+00 4.46349960e-02 8.92699920e-02 0.00000000e+00 4.46349960e-02 1.33904988e-01 8.92699920e-02 8.92699920e-02 8.92699920e-02 4.46349960e-02 4.46349960e-02 1.78539984e-01 1.78539984e-01 4.46349960e-02 0.00000000e+00 8.92699920e-02 4.46349960e-02 8.92699920e-02 4.46349960e-02 0.00000000e+00 8.92699920e-02 8.92699920e-02 8.92699920e-02 4.46349960e-02 1.78539984e-01 4.46349960e-02 8.92699920e-02 0.00000000e+00 4.46349960e-02 0.00000000e+00 1.78539984e-01 1.78539984e-01 1.33904988e-01 1.78539984e-01 1.78539984e-01 1.33904988e-01 8.92699920e-02 4.46349960e-02 1.33904988e-01 8.92699920e-02 4.46349960e-02 2.23174980e-01 4.46349960e-02 2.23174980e-01 8.92699920e-02 1.78539984e-01 4.46349960e-02 1.33904988e-01 1.78539984e-01 4.46349960e-02 1.33904988e-01 1.33904988e-01 1.78539984e-01 8.92699920e-02 0.00000000e+00 4.46349960e-02 0.00000000e+00 2.67809976e-01 1.78539984e-01 4.46349960e-02 8.92699920e-02 0.00000000e+00 3.12444972e-01 8.92699920e-02 1.33904988e-01 1.33904988e-01 0.00000000e+00 1.33904988e-01 -4.46349960e-02 4.46349960e-02 4.46349960e-02 1.78539984e-01 4.46349960e-02 8.92699920e-02 8.92699920e-02 8.92699920e-02 1.33904988e-01 1.33904988e-01 4.46349960e-02 1.33904988e-01 1.33904988e-01 2.23174980e-01 1.33904988e-01 8.92699920e-02 1.33904988e-01 1.33904988e-01 8.92699920e-02 8.92699920e-02 8.92699920e-02 4.46349960e-02 0.00000000e+00 1.33904988e-01 4.46349960e-02 4.46349960e-02 1.78539984e-01 2.67809976e-01 1.78539984e-01 8.92699920e-02 1.78539984e-01 1.78539984e-01 1.33904988e-01 1.78539984e-01 1.33904988e-01 1.33904988e-01 8.92699920e-02 1.33904988e-01 2.23174980e-01 2.23174980e-01 4.46349960e-02 4.46349960e-02 8.92699920e-02 1.33904988e-01 4.46349960e-02 4.46349960e-02 8.92699920e-02 8.92699920e-02 1.33904988e-01 4.46349960e-02 8.92699920e-02 2.67809976e-01 4.46349960e-02 8.92699920e-02 2.23174980e-01 8.92699920e-02 4.46349960e-02 1.78539984e-01 8.92699920e-02 1.33904988e-01 1.33904988e-01 1.33904988e-01 4.46349960e-02 0.00000000e+00 8.92699920e-02 1.33904988e-01 1.33904988e-01 1.78539984e-01 0.00000000e+00 1.33904988e-01 4.46349960e-02 1.78539984e-01 1.33904988e-01 4.46349960e-02 1.33904988e-01 8.92699920e-02 1.33904988e-01 3.12444972e-01 1.78539984e-01 1.78539984e-01 1.78539984e-01 2.23174980e-01 1.33904988e-01 4.46349960e-02 2.23174980e-01 4.46349960e-02 0.00000000e+00 0.00000000e+00 8.92699920e-02 0.00000000e+00 4.46349960e-02 2.23174980e-01 1.33904988e-01 4.46349960e-02 4.46349960e-02 4.46349960e-02 8.92699920e-02 1.78539984e-01 8.92699920e-02 4.46349960e-02 2.23174980e-01 8.92699920e-02 3.12444972e-01 0.00000000e+00 1.33904988e-01 4.46349960e-02 8.92699920e-02 8.92699920e-02 8.92699920e-02 0.00000000e+00 1.33904988e-01 0.00000000e+00 2.23174980e-01 8.92699920e-02 4.46349960e-02 0.00000000e+00 8.92699920e-02 0.00000000e+00 4.46349960e-02 8.92699920e-02 2.23174980e-01 0.00000000e+00 1.78539984e-01 8.92699920e-02 1.33904988e-01 4.46349960e-02 8.92699920e-02 1.33904988e-01 1.78539984e-01 2.23174980e-01 0.00000000e+00 8.92699920e-02 1.33904988e-01 1.78539984e-01 8.92699920e-02 1.78539984e-01 4.46349960e-02 1.33904988e-01 1.78539984e-01 3.12444972e-01 1.78539984e-01 0.00000000e+00 8.92699920e-02 4.46349960e-02 8.92699920e-02 1.78539984e-01 1.33904988e-01 1.33904988e-01 1.33904988e-01 4.46349960e-02 1.78539984e-01 1.33904988e-01 8.92699920e-02 2.23174980e-01 1.33904988e-01 2.23174980e-01 8.92699920e-02 1.33904988e-01 1.33904988e-01 1.33904988e-01 1.33904988e-01 8.92699920e-02 4.46349960e-02 1.33904988e-01 4.46349960e-02 2.23174980e-01 4.46349960e-02 8.92699920e-02 4.46349960e-02 1.33904988e-01 1.33904988e-01 1.33904988e-01 4.46349960e-02 0.00000000e+00 8.92699920e-02 1.78539984e-01 1.33904988e-01 1.33904988e-01 4.46349960e-02 1.33904988e-01 1.33904988e-01 4.46349960e-02 2.23174980e-01 1.33904988e-01 1.78539984e-01 1.33904988e-01 0.00000000e+00 4.46349960e-02 4.46349960e-02 1.78539984e-01 1.33904988e-01 1.33904988e-01 0.00000000e+00 2.23174980e-01 4.46349960e-02 1.78539984e-01 2.23174980e-01 -4.46349960e-02 1.33904988e-01 0.00000000e+00 1.78539984e-01 1.33904988e-01 8.92699920e-02 1.78539984e-01 0.00000000e+00 1.33904988e-01 0.00000000e+00 4.46349960e-02 4.46349960e-02 1.78539984e-01 1.78539984e-01 8.92699920e-02 1.33904988e-01 1.33904988e-01 4.46349960e-02 8.92699920e-02 4.46349960e-02 1.33904988e-01 8.92699920e-02 8.92699920e-02 3.12444972e-01 4.46349960e-02 8.92699920e-02 1.78539984e-01 8.92699920e-02 1.78539984e-01 8.92699920e-02 4.46349960e-02 1.33904988e-01 0.00000000e+00 4.46349960e-02 1.78539984e-01 1.78539984e-01 2.23174980e-01 1.33904988e-01 8.92699920e-02 2.23174980e-01 0.00000000e+00 4.46349960e-02 8.92699920e-02 1.78539984e-01 4.46349960e-02 8.92699920e-02 8.92699920e-02 4.46349960e-02 0.00000000e+00 4.46349960e-02 1.33904988e-01 4.46349960e-02 1.33904988e-01 8.92699920e-02 1.33904988e-01 8.92699920e-02 4.46349960e-02 8.92699920e-02 8.92699920e-02 8.92699920e-02 4.46349960e-02 4.46349960e-02 1.33904988e-01 2.23174980e-01 8.92699920e-02 8.92699920e-02 8.92699920e-02 0.00000000e+00 8.92699920e-02 8.92699920e-02 1.78539984e-01 8.92699920e-02 4.46349960e-02 4.46349960e-02 4.46349960e-02 8.92699920e-02 1.33904988e-01 1.33904988e-01 4.46349960e-02 8.92699920e-02 2.23174980e-01 2.23174980e-01 1.33904988e-01 1.78539984e-01 8.92699920e-02 8.92699920e-02 4.46349960e-02 1.33904988e-01 8.92699920e-02 0.00000000e+00 4.46349960e-02 8.92699920e-02 1.33904988e-01 1.33904988e-01 4.46349960e-02 4.46349960e-02 8.92699920e-02 1.33904988e-01 8.92699920e-02 1.78539984e-01 8.92699920e-02 4.46349960e-02 1.78539984e-01 4.46349960e-02 1.78539984e-01 1.78539984e-01 8.92699920e-02 4.46349960e-02 1.33904988e-01 1.33904988e-01 8.92699920e-02 1.78539984e-01 4.46349960e-02 8.92699920e-02 4.46349960e-02 4.46349960e-02 8.92699920e-02 0.00000000e+00 8.92699920e-02 0.00000000e+00 1.33904988e-01 0.00000000e+00 1.33904988e-01 4.01714964e-01 1.33904988e-01 8.92699920e-02 8.92699920e-02 1.33904988e-01 1.78539984e-01 3.12444972e-01 8.92699920e-02 4.46349960e-02 4.46349960e-02 1.33904988e-01 1.33904988e-01 0.00000000e+00 8.92699920e-02 4.46349960e-02 2.67809976e-01 1.33904988e-01 4.46349960e-02 0.00000000e+00 0.00000000e+00 4.46349960e-02 2.67809976e-01 4.46349960e-02 4.46349960e-02 1.33904988e-01 8.92699920e-02 0.00000000e+00 8.92699920e-02 0.00000000e+00 2.23174980e-01 8.92699920e-02 8.92699920e-02 1.78539984e-01 0.00000000e+00 8.92699920e-02 4.46349960e-02 1.33904988e-01 0.00000000e+00 1.33904988e-01 1.78539984e-01 1.33904988e-01 0.00000000e+00 1.33904988e-01 4.46349960e-02 8.92699920e-02 8.92699920e-02 2.23174980e-01 4.46349960e-02 8.92699920e-02 4.46349960e-02 4.46349960e-02 4.46349960e-02 1.78539984e-01 8.92699920e-02 8.92699920e-02 1.78539984e-01 0.00000000e+00 0.00000000e+00 1.33904988e-01 0.00000000e+00 8.92699920e-02 1.33904988e-01 1.33904988e-01 8.92699920e-02 8.92699920e-02 8.92699920e-02 0.00000000e+00 4.46349960e-02 0.00000000e+00 1.78539984e-01 1.33904988e-01 2.23174980e-01 4.46349960e-02 0.00000000e+00 8.92699920e-02 1.78539984e-01 4.46349960e-02 8.92699920e-02 1.33904988e-01 1.33904988e-01 8.92699920e-02 4.46349960e-02 1.33904988e-01 8.92699920e-02 4.46349960e-02 8.92699920e-02 8.92699920e-02 2.23174980e-01 4.46349960e-02 4.46349960e-02 4.46349960e-02 0.00000000e+00 1.78539984e-01 0.00000000e+00 4.46349960e-02 8.92699920e-02 4.46349960e-02 4.46349960e-02 1.33904988e-01 8.92699920e-02 1.78539984e-01 1.78539984e-01 1.78539984e-01 1.33904988e-01 1.33904988e-01 8.92699920e-02 0.00000000e+00 2.23174980e-01 0.00000000e+00 4.46349960e-02 0.00000000e+00 4.46349960e-02 8.92699920e-02 1.33904988e-01 1.33904988e-01 1.78539984e-01 4.46349960e-02 4.46349960e-02 1.33904988e-01 2.23174980e-01 2.23174980e-01 8.92699920e-02 1.33904988e-01 8.92699920e-02 8.92699920e-02 8.92699920e-02 2.23174980e-01 1.33904988e-01 1.78539984e-01 8.92699920e-02 8.92699920e-02 8.92699920e-02 0.00000000e+00 8.92699920e-02 8.92699920e-02 2.23174980e-01 1.33904988e-01 1.33904988e-01 8.92699920e-02 8.92699920e-02 1.33904988e-01 1.33904988e-01 4.46349960e-02 8.92699920e-02 1.33904988e-01 8.92699920e-02 4.46349960e-02 4.46349960e-02 0.00000000e+00 2.23174980e-01 4.46349960e-02 4.46349960e-02 8.92699920e-02 0.00000000e+00 1.33904988e-01 0.00000000e+00 0.00000000e+00 1.33904988e-01 4.46349960e-02 2.23174980e-01 8.92699920e-02 4.46349960e-02 0.00000000e+00 4.46349960e-02 0.00000000e+00 4.46349960e-02 1.33904988e-01 3.12444972e-01 0.00000000e+00 8.92699920e-02 4.46349960e-02 1.78539984e-01 8.92699920e-02 1.78539984e-01 0.00000000e+00 1.78539984e-01 4.46349960e-02 8.92699920e-02 1.78539984e-01 1.78539984e-01 1.33904988e-01 0.00000000e+00 4.46349960e-02 1.33904988e-01 1.33904988e-01 1.78539984e-01 8.92699920e-02 8.92699920e-02 1.33904988e-01 1.33904988e-01 8.92699920e-02 8.92699920e-02 1.78539984e-01 1.78539984e-01 1.78539984e-01 1.33904988e-01 8.92699920e-02 4.46349960e-02 0.00000000e+00 1.33904988e-01 8.92699920e-02 8.92699920e-02 8.92699920e-02 1.78539984e-01 1.78539984e-01 1.33904988e-01 8.92699920e-02 4.46349960e-02 4.46349960e-02 1.33904988e-01 1.78539984e-01 0.00000000e+00 8.92699920e-02 8.92699920e-02 4.46349960e-02 8.92699920e-02 4.46349960e-02 2.23174980e-01 1.33904988e-01 2.67809976e-01 8.92699920e-02 8.92699920e-02 2.23174980e-01 1.78539984e-01 8.92699920e-02 1.33904988e-01 1.33904988e-01 1.33904988e-01 1.33904988e-01 1.33904988e-01 8.92699920e-02 4.46349960e-02 8.92699920e-02 8.92699920e-02 1.78539984e-01 4.46349960e-02 4.46349960e-02 8.92699920e-02 4.46349960e-02 1.33904988e-01 8.92699920e-02 0.00000000e+00 0.00000000e+00 4.46349960e-02 1.78539984e-01 0.00000000e+00 4.46349960e-02 8.92699920e-02 0.00000000e+00 0.00000000e+00 1.78539984e-01 3.12444972e-01 8.92699920e-02 1.33904988e-01 2.23174980e-01 4.46349960e-02 1.78539984e-01 8.92699920e-02 0.00000000e+00 0.00000000e+00 8.92699920e-02 0.00000000e+00 4.46349960e-02 8.92699920e-02 4.46349960e-02 8.92699920e-02 1.33904988e-01 1.78539984e-01 2.23174980e-01 0.00000000e+00 1.33904988e-01 1.78539984e-01 4.46349960e-02 8.92699920e-02 8.92699920e-02 8.92699920e-02 2.67809976e-01 1.78539984e-01 1.33904988e-01 1.33904988e-01 1.33904988e-01 0.00000000e+00 4.46349960e-02 4.46349960e-02 4.46349960e-02 4.46349960e-02 1.78539984e-01 4.46349960e-02 4.46349960e-02 1.33904988e-01 8.92699920e-02 8.92699920e-02 4.46349960e-02 8.92699920e-02 1.78539984e-01 1.78539984e-01 2.23174980e-01 4.46349960e-02 8.92699920e-02 1.33904988e-01 4.46349960e-02 1.33904988e-01 2.23174980e-01 1.33904988e-01 8.92699920e-02 2.23174980e-01 8.92699920e-02 2.67809976e-01 1.78539984e-01 4.46349960e-02 4.46349960e-02 2.23174980e-01 8.92699920e-02 0.00000000e+00 1.33904988e-01 1.78539984e-01 4.46349960e-02 1.78539984e-01 0.00000000e+00 8.92699920e-02 3.57079968e-01 8.92699920e-02 1.33904988e-01 1.33904988e-01 1.78539984e-01 4.46349960e-02 1.78539984e-01 1.33904988e-01 8.92699920e-02 4.46349960e-02 1.78539984e-01 4.46349960e-02 4.46349960e-02 8.92699920e-02 0.00000000e+00 1.33904988e-01 8.92699920e-02 1.33904988e-01 8.92699920e-02 1.33904988e-01 1.78539984e-01 1.78539984e-01 8.92699920e-02 4.46349960e-02 4.46349960e-02 8.92699920e-02 1.78539984e-01 1.33904988e-01 1.33904988e-01 8.92699920e-02 4.46349960e-02 4.46349960e-02 8.92699920e-02 1.78539984e-01 4.46349960e-02 8.92699920e-02 1.78539984e-01 8.92699920e-02 0.00000000e+00 0.00000000e+00 4.46349960e-02 1.33904988e-01 4.46349960e-02 8.92699920e-02 4.46349960e-02 1.78539984e-01 0.00000000e+00 2.23174980e-01 8.92699920e-02 4.46349960e-02 1.33904988e-01 2.67809976e-01 1.33904988e-01 8.92699920e-02 2.23174980e-01 0.00000000e+00 0.00000000e+00 8.92699920e-02 1.33904988e-01 1.33904988e-01 1.78539984e-01 2.23174980e-01 4.46349960e-02 8.92699920e-02 1.78539984e-01 8.92699920e-02 1.33904988e-01 4.46349960e-02 0.00000000e+00 0.00000000e+00 1.78539984e-01 1.33904988e-01 1.78539984e-01 4.46349960e-02 4.46349960e-02 1.78539984e-01 8.92699920e-02 8.92699920e-02 1.33904988e-01 2.23174980e-01 1.33904988e-01 4.46349960e-02 1.33904988e-01 4.46349960e-02 0.00000000e+00 8.92699920e-02 0.00000000e+00 8.92699920e-02 4.46349960e-02 4.46349960e-02 8.92699920e-02 8.92699920e-02 0.00000000e+00 1.78539984e-01 4.46349960e-02 2.23174980e-01 2.23174980e-01 1.78539984e-01 1.78539984e-01 1.33904988e-01 4.46349960e-02 4.46349960e-02 8.92699920e-02 8.92699920e-02 1.33904988e-01 1.33904988e-01 1.33904988e-01 4.46349960e-02 2.23174980e-01 4.46349960e-02 4.46349960e-02 8.92699920e-02 1.78539984e-01 8.92699920e-02 0.00000000e+00 1.78539984e-01 8.92699920e-02 4.46349960e-02 2.23174980e-01 8.92699920e-02 0.00000000e+00 8.92699920e-02 1.33904988e-01 0.00000000e+00 8.92699920e-02 3.57079968e-01 4.46349960e-02 1.33904988e-01 1.33904988e-01 0.00000000e+00 1.33904988e-01 1.78539984e-01 1.33904988e-01 2.23174980e-01 2.67809976e-01 4.46349960e-02 2.23174980e-01 1.33904988e-01 1.33904988e-01 1.33904988e-01 0.00000000e+00 4.46349960e-02 4.46349960e-02 1.78539984e-01 8.92699920e-02 4.46349960e-02 1.33904988e-01 -4.46349960e-02 4.46349960e-02 8.92699920e-02 4.46349960e-02 8.92699920e-02 4.46349960e-02 2.67809976e-01 8.92699920e-02 1.78539984e-01 1.33904988e-01 1.33904988e-01 2.23174980e-01 1.33904988e-01 8.92699920e-02 8.92699920e-02 1.33904988e-01 4.46349960e-02 2.23174980e-01 8.92699920e-02 8.92699920e-02 4.46349960e-02 1.33904988e-01 0.00000000e+00 4.46349960e-02 8.92699920e-02 0.00000000e+00 8.92699920e-02 4.46349960e-02 4.46349960e-02 4.46349960e-02 1.78539984e-01 8.92699920e-02 2.67809976e-01 2.23174980e-01 1.78539984e-01 1.33904988e-01 2.23174980e-01 8.92699920e-02 4.46349960e-02 4.46349960e-02 4.46349960e-02 2.23174980e-01 4.46349960e-02 1.78539984e-01 8.92699920e-02 1.78539984e-01 1.33904988e-01 1.33904988e-01 1.33904988e-01 2.23174980e-01 8.92699920e-02 0.00000000e+00 8.92699920e-02 1.33904988e-01 4.46349960e-02 4.46349960e-02 0.00000000e+00 4.46349960e-02 0.00000000e+00 4.46349960e-02 2.23174980e-01 1.33904988e-01 8.92699920e-02 1.33904988e-01 4.46349960e-02 0.00000000e+00 1.33904988e-01 0.00000000e+00 0.00000000e+00 1.33904988e-01 1.33904988e-01 1.33904988e-01 0.00000000e+00 8.92699920e-02 8.92699920e-02 1.33904988e-01 4.46349960e-02 8.92699920e-02 4.46349960e-02 8.92699920e-02 0.00000000e+00 1.33904988e-01 8.92699920e-02 8.92699920e-02 1.33904988e-01 4.46349960e-02 8.92699920e-02 4.46349960e-02 8.92699920e-02 4.46349960e-02 8.92699920e-02 8.92699920e-02 4.46349960e-02 8.92699920e-02 1.33904988e-01 8.92699920e-02 0.00000000e+00 1.78539984e-01 4.46349960e-02 8.92699920e-02 4.46349960e-02 1.33904988e-01 8.92699920e-02 8.92699920e-02 2.23174980e-01 1.33904988e-01 0.00000000e+00 0.00000000e+00 1.33904988e-01 8.92699920e-02 8.92699920e-02 2.23174980e-01 0.00000000e+00 4.46349960e-02 8.92699920e-02 2.67809976e-01 1.78539984e-01 1.78539984e-01 4.46349960e-02 0.00000000e+00 0.00000000e+00 4.46349960e-02 1.78539984e-01 8.92699920e-02 8.92699920e-02 8.92699920e-02 8.92699920e-02 4.46349960e-02 2.67809976e-01 1.33904988e-01 4.46349960e-02 1.33904988e-01 8.92699920e-02 1.33904988e-01 1.33904988e-01 8.92699920e-02 1.33904988e-01 2.23174980e-01 1.33904988e-01 8.92699920e-02 1.33904988e-01 8.92699920e-02 1.33904988e-01 1.33904988e-01 8.92699920e-02 1.33904988e-01 4.46349960e-02 8.92699920e-02 4.46349960e-02 4.46349960e-02 1.78539984e-01 8.92699920e-02 1.33904988e-01 4.46349960e-02 4.46349960e-02 2.23174980e-01 8.92699920e-02 8.92699920e-02 8.92699920e-02 1.33904988e-01 8.92699920e-02 4.46349960e-02 8.92699920e-02 8.92699920e-02 1.33904988e-01 4.46349960e-02 0.00000000e+00 4.46349960e-02 4.46349960e-02 2.23174980e-01 1.78539984e-01 1.33904988e-01 4.46349960e-02 4.46349960e-02 1.33904988e-01 4.46349960e-02 4.46349960e-02 0.00000000e+00 4.46349960e-02 8.92699920e-02 1.78539984e-01 0.00000000e+00 1.33904988e-01 4.46349960e-02 8.92699920e-02 4.46349960e-02 1.78539984e-01 4.46349960e-02 8.92699920e-02 1.78539984e-01 1.78539984e-01 4.46349960e-02 4.46349960e-02 1.78539984e-01 4.46349960e-02 4.46349960e-02 8.92699920e-02 4.46349960e-02 8.92699920e-02 1.33904988e-01 1.33904988e-01 0.00000000e+00 4.46349960e-02 8.92699920e-02 1.78539984e-01 1.33904988e-01 8.92699920e-02 4.46349960e-02 1.33904988e-01 4.46349960e-02 1.78539984e-01 2.67809976e-01 0.00000000e+00 2.23174980e-01 1.33904988e-01 4.46349960e-02 1.33904988e-01 0.00000000e+00 1.78539984e-01 1.33904988e-01 1.78539984e-01 8.92699920e-02 1.33904988e-01 4.46349960e-02 4.46349960e-02 2.23174980e-01 2.23174980e-01 8.92699920e-02 4.46349960e-02 1.78539984e-01 8.92699920e-02 1.78539984e-01 8.92699920e-02 8.92699920e-02 1.78539984e-01 4.46349960e-02 1.33904988e-01 1.33904988e-01 0.00000000e+00 1.33904988e-01 1.78539984e-01 4.46349960e-02 4.46349960e-02 8.92699920e-02 4.46349960e-02 1.33904988e-01 4.46349960e-02 0.00000000e+00 1.78539984e-01 4.46349960e-02 4.46349960e-02 4.46349960e-02 1.78539984e-01 1.78539984e-01 8.92699920e-02 8.92699920e-02 8.92699920e-02 8.92699920e-02 8.92699920e-02 1.78539984e-01 3.12444972e-01 8.92699920e-02 4.46349960e-02 1.33904988e-01 1.33904988e-01 8.92699920e-02 1.33904988e-01 8.92699920e-02 8.92699920e-02 8.92699920e-02 8.92699920e-02 8.92699920e-02 8.92699920e-02 1.33904988e-01 8.92699920e-02 8.92699920e-02 0.00000000e+00 0.00000000e+00 8.92699920e-02 1.33904988e-01 8.92699920e-02 1.33904988e-01 8.92699920e-02 1.33904988e-01 1.33904988e-01 4.46349960e-02 8.92699920e-02 2.23174980e-01 8.92699920e-02 4.46349960e-02 4.46349960e-02 8.92699920e-02 4.46349960e-02 0.00000000e+00 1.33904988e-01 8.92699920e-02 4.46349960e-02 1.33904988e-01 1.78539984e-01 8.92699920e-02 1.78539984e-01 8.92699920e-02 0.00000000e+00 4.46349960e-02 8.92699920e-02 8.92699920e-02 1.78539984e-01 8.92699920e-02 4.46349960e-02 1.78539984e-01 8.92699920e-02 1.78539984e-01 1.33904988e-01 0.00000000e+00 4.46349960e-02 0.00000000e+00 1.33904988e-01 1.33904988e-01 1.33904988e-01 8.92699920e-02 0.00000000e+00 4.46349960e-02 1.33904988e-01 2.23174980e-01 2.23174980e-01 8.92699920e-02 8.92699920e-02 1.78539984e-01 4.46349960e-02 1.33904988e-01 8.92699920e-02 8.92699920e-02 4.46349960e-02 8.92699920e-02 4.46349960e-02 1.33904988e-01 1.33904988e-01 1.33904988e-01 4.46349960e-02 0.00000000e+00 2.23174980e-01 8.92699920e-02 8.92699920e-02 1.33904988e-01 1.33904988e-01 4.46349960e-02 4.46349960e-02 2.67809976e-01 4.46349960e-02 4.46349960e-02 1.33904988e-01 8.92699920e-02 4.46349960e-02 1.78539984e-01 4.46349960e-02 4.46349960e-02 4.46349960e-02 0.00000000e+00 1.33904988e-01 8.92699920e-02 1.33904988e-01 8.92699920e-02 8.92699920e-02 4.46349960e-02 0.00000000e+00 8.92699920e-02 2.23174980e-01 4.46349960e-02 8.92699920e-02 1.78539984e-01 1.78539984e-01 8.92699920e-02 8.92699920e-02 4.46349960e-02 0.00000000e+00 0.00000000e+00 1.33904988e-01 2.23174980e-01 8.92699920e-02 2.23174980e-01 4.46349960e-02 4.46349960e-02 2.67809976e-01 8.92699920e-02 4.46349960e-02 1.33904988e-01 8.92699920e-02 8.92699920e-02 2.23174980e-01 1.33904988e-01 1.33904988e-01 4.46349960e-02 8.92699920e-02 1.33904988e-01 8.92699920e-02 4.46349960e-02 1.33904988e-01 1.33904988e-01 0.00000000e+00 4.46349960e-02 1.33904988e-01 1.33904988e-01 4.46349960e-02 4.46349960e-02 8.92699920e-02 1.78539984e-01 8.92699920e-02 8.92699920e-02 1.78539984e-01 4.46349960e-02 8.92699920e-02 8.92699920e-02 4.46349960e-02 4.46349960e-02 8.92699920e-02 1.33904988e-01 0.00000000e+00 1.33904988e-01 1.78539984e-01 8.92699920e-02 8.92699920e-02 4.46349960e-02 1.33904988e-01 1.33904988e-01 1.33904988e-01 8.92699920e-02 8.92699920e-02 4.46349960e-02 4.46349960e-02 8.92699920e-02 8.92699920e-02 1.78539984e-01 1.33904988e-01 8.92699920e-02 1.33904988e-01 4.46349960e-02 0.00000000e+00 8.92699920e-02 0.00000000e+00 1.33904988e-01 4.46349960e-02 4.46349960e-02 1.33904988e-01 1.33904988e-01 1.78539984e-01 8.92699920e-02 8.92699920e-02 4.46349960e-02 8.92699920e-02 1.33904988e-01 1.33904988e-01 1.78539984e-01 1.78539984e-01 1.33904988e-01 0.00000000e+00 4.46349960e-02 4.46349960e-02 2.23174980e-01 1.33904988e-01 8.92699920e-02 4.46349960e-02 8.92699920e-02 1.33904988e-01 8.92699920e-02 1.33904988e-01 4.46349960e-02 8.92699920e-02 1.33904988e-01 4.46349960e-02 8.92699920e-02 1.33904988e-01 1.33904988e-01 1.33904988e-01 8.92699920e-02 1.78539984e-01 1.33904988e-01 8.92699920e-02 8.92699920e-02 1.33904988e-01 1.78539984e-01 1.33904988e-01 8.92699920e-02 4.46349960e-02 4.46349960e-02 4.46349960e-02 8.92699920e-02 1.33904988e-01 8.92699920e-02 1.33904988e-01 1.78539984e-01 0.00000000e+00 8.92699920e-02 0.00000000e+00 4.46349960e-02 4.46349960e-02 1.33904988e-01 0.00000000e+00 8.92699920e-02 4.46349960e-02 4.46349960e-02 1.78539984e-01 1.33904988e-01 1.78539984e-01 2.23174980e-01 4.46349960e-02 1.33904988e-01 3.12444972e-01 8.92699920e-02 0.00000000e+00 4.46349960e-02 2.67809976e-01 4.46349960e-02 8.92699920e-02 4.46349960e-02 1.33904988e-01 1.78539984e-01 4.46349960e-02 0.00000000e+00 8.92699920e-02 4.46349960e-02 0.00000000e+00 8.92699920e-02 4.46349960e-02 4.46349960e-02 4.46349960e-02 4.46349960e-02 1.78539984e-01 1.33904988e-01 8.92699920e-02 4.46349960e-02 1.33904988e-01 8.92699920e-02 4.46349960e-02 4.46349960e-02 2.23174980e-01 4.46349960e-02 1.78539984e-01 4.46349960e-02 8.92699920e-02 1.78539984e-01 0.00000000e+00 1.78539984e-01 1.78539984e-01 1.78539984e-01 4.46349960e-02 0.00000000e+00 4.46349960e-02 -4.46349960e-02 1.33904988e-01 4.46349960e-02 0.00000000e+00 4.46349960e-02 8.92699920e-02 1.78539984e-01 1.33904988e-01 1.78539984e-01 8.92699920e-02 1.78539984e-01 1.33904988e-01 1.78539984e-01 2.67809976e-01 4.46349960e-02 1.33904988e-01 1.78539984e-01 1.33904988e-01 0.00000000e+00 4.46349960e-02 4.46349960e-02 8.92699920e-02 1.33904988e-01 4.46349960e-02 1.33904988e-01 1.33904988e-01 1.33904988e-01 1.78539984e-01 8.92699920e-02 1.33904988e-01 0.00000000e+00 4.46349960e-02 8.92699920e-02 4.46349960e-02 1.33904988e-01 8.92699920e-02 2.23174980e-01 2.23174980e-01 4.46349960e-02 8.92699920e-02 4.46349960e-02 4.46349960e-02 8.92699920e-02 1.33904988e-01 1.78539984e-01 4.46349960e-02 0.00000000e+00 4.46349960e-02 4.46349960e-02 8.92699920e-02 8.92699920e-02 2.23174980e-01 8.92699920e-02 1.33904988e-01 0.00000000e+00 1.33904988e-01 1.78539984e-01 4.46349960e-02 4.46349960e-02 0.00000000e+00 2.23174980e-01 1.78539984e-01 1.33904988e-01 0.00000000e+00 1.78539984e-01 2.23174980e-01 1.78539984e-01 2.23174980e-01 4.46349960e-02 4.46349960e-02 0.00000000e+00 0.00000000e+00 2.23174980e-01 0.00000000e+00 8.92699920e-02 1.78539984e-01 1.78539984e-01 1.78539984e-01 1.78539984e-01 2.23174980e-01 8.92699920e-02 0.00000000e+00 4.46349960e-02 2.23174980e-01 4.46349960e-02 2.67809976e-01 1.33904988e-01 2.23174980e-01 4.46349960e-02 4.46349960e-02 8.92699920e-02 8.92699920e-02 1.33904988e-01 1.33904988e-01 8.92699920e-02 0.00000000e+00 4.46349960e-02 4.46349960e-02 8.92699920e-02 0.00000000e+00 0.00000000e+00 1.33904988e-01 8.92699920e-02 1.78539984e-01 1.33904988e-01 8.92699920e-02 1.33904988e-01 8.92699920e-02 1.78539984e-01 8.92699920e-02 1.33904988e-01 8.92699920e-02 4.46349960e-02 1.33904988e-01 1.33904988e-01 4.46349960e-02 4.46349960e-02 8.92699920e-02 0.00000000e+00 4.46349960e-02 8.92699920e-02 8.92699920e-02 1.33904988e-01 1.33904988e-01 8.92699920e-02 0.00000000e+00 1.78539984e-01 8.92699920e-02 8.92699920e-02 8.92699920e-02 4.46349960e-02 0.00000000e+00 1.78539984e-01 1.33904988e-01 1.33904988e-01 8.92699920e-02 4.46349960e-02 8.92699920e-02 4.46349960e-02 4.46349960e-02 4.46349960e-02 4.46349960e-02 2.23174980e-01 4.46349960e-02 4.46349960e-02 2.23174980e-01 8.92699920e-02 1.33904988e-01 4.46349960e-02 8.92699920e-02 8.92699920e-02 1.33904988e-01 8.92699920e-02 0.00000000e+00 8.92699920e-02 4.46349960e-02 8.92699920e-02 4.46349960e-02 1.33904988e-01 8.92699920e-02 4.46349960e-02 1.78539984e-01 1.78539984e-01 1.33904988e-01 4.46349960e-02 1.78539984e-01 1.33904988e-01 1.33904988e-01 1.78539984e-01 4.46349960e-02 1.33904988e-01 2.23174980e-01 8.92699920e-02 0.00000000e+00 1.33904988e-01 4.46349960e-02 8.92699920e-02 4.46349960e-02 8.92699920e-02 8.92699920e-02 0.00000000e+00 1.33904988e-01 8.92699920e-02 4.46349960e-02 4.46349960e-02 8.92699920e-02 0.00000000e+00 4.46349960e-02 1.78539984e-01 0.00000000e+00 8.92699920e-02 4.46349960e-02 4.46349960e-02 4.46349960e-02 8.92699920e-02 1.33904988e-01 1.33904988e-01 1.78539984e-01 4.46349960e-02 0.00000000e+00 8.92699920e-02 4.46349960e-02 0.00000000e+00 1.33904988e-01 4.46349960e-02 1.33904988e-01 1.78539984e-01 8.92699920e-02 4.46349960e-02 1.78539984e-01 1.78539984e-01 4.46349960e-02 4.46349960e-02 8.92699920e-02 4.46349960e-02 4.46349960e-02 4.46349960e-02 4.46349960e-02 0.00000000e+00 1.33904988e-01 0.00000000e+00 4.46349960e-02 8.92699920e-02 1.33904988e-01 1.78539984e-01 8.92699920e-02 8.92699920e-02 1.33904988e-01 8.92699920e-02 0.00000000e+00 1.78539984e-01 0.00000000e+00 1.33904988e-01 1.33904988e-01 1.33904988e-01 1.33904988e-01 4.46349960e-02 8.92699920e-02 1.78539984e-01 4.46349960e-02 4.46349960e-02 1.33904988e-01 4.46349960e-02 4.46349960e-02 4.46349960e-02 2.23174980e-01 1.33904988e-01 4.46349960e-02 4.46349960e-02 0.00000000e+00 4.46349960e-02 4.46349960e-02 1.33904988e-01 8.92699920e-02 0.00000000e+00 1.78539984e-01 4.46349960e-02 0.00000000e+00 1.78539984e-01 8.92699920e-02 0.00000000e+00 4.46349960e-02 4.46349960e-02 4.46349960e-02 8.92699920e-02 1.33904988e-01 4.46349960e-02 8.92699920e-02 4.46349960e-02 1.33904988e-01 8.92699920e-02 4.46349960e-02 1.78539984e-01 1.78539984e-01 2.23174980e-01 1.78539984e-01 0.00000000e+00 0.00000000e+00 2.67809976e-01 1.33904988e-01 2.23174980e-01 2.23174980e-01 8.92699920e-02 1.78539984e-01 1.78539984e-01 0.00000000e+00 8.92699920e-02 1.78539984e-01 0.00000000e+00 1.33904988e-01 4.46349960e-02 8.92699920e-02 8.92699920e-02 1.33904988e-01 8.92699920e-02 1.33904988e-01 4.46349960e-02 4.46349960e-02 8.92699920e-02 1.33904988e-01 8.92699920e-02 4.46349960e-02 2.23174980e-01 1.33904988e-01 4.46349960e-02 8.92699920e-02 4.46349960e-02 2.23174980e-01 1.78539984e-01 4.46349960e-02 4.46349960e-02 8.92699920e-02 1.78539984e-01 1.33904988e-01 1.78539984e-01 8.92699920e-02 8.92699920e-02 4.46349960e-02 4.46349960e-02 1.33904988e-01 2.23174980e-01 4.46349960e-02 8.92699920e-02 4.46349960e-02 1.78539984e-01 0.00000000e+00 2.23174980e-01 8.92699920e-02 1.33904988e-01 1.33904988e-01 4.46349960e-02 0.00000000e+00 8.92699920e-02 8.92699920e-02 4.46349960e-02 4.46349960e-02 2.67809976e-01 8.92699920e-02 1.78539984e-01 2.23174980e-01 0.00000000e+00 1.33904988e-01 4.46349960e-02 4.46349960e-02 4.46349960e-02 1.33904988e-01 8.92699920e-02 8.92699920e-02 8.92699920e-02 8.92699920e-02 0.00000000e+00 4.46349960e-02 1.33904988e-01 2.67809976e-01 0.00000000e+00 1.78539984e-01 4.46349960e-02 8.92699920e-02 1.33904988e-01 4.46349960e-02 8.92699920e-02 4.46349960e-02 0.00000000e+00 0.00000000e+00 0.00000000e+00 8.92699920e-02 4.46349960e-02 4.46349960e-02 2.23174980e-01 8.92699920e-02 8.92699920e-02 8.92699920e-02 1.33904988e-01 4.46349960e-02 4.46349960e-02 1.33904988e-01 8.92699920e-02 8.92699920e-02 1.78539984e-01 1.33904988e-01 4.46349960e-02 4.46349960e-01 4.46349960e-02 4.46349960e-02 0.00000000e+00 8.92699920e-02 4.46349960e-02 8.92699920e-02 8.92699920e-02 4.46349960e-02 8.92699920e-02 1.78539984e-01 4.46349960e-02 1.33904988e-01 8.92699920e-02 1.33904988e-01 8.92699920e-02 1.33904988e-01 4.46349960e-02 8.92699920e-02 1.33904988e-01 1.78539984e-01 1.33904988e-01 2.23174980e-01 4.46349960e-02 2.67809976e-01 8.92699920e-02 8.92699920e-02 4.46349960e-02 2.23174980e-01 4.46349960e-02 1.78539984e-01 1.33904988e-01 4.46349960e-02 4.46349960e-02 0.00000000e+00 4.46349960e-02 1.33904988e-01 0.00000000e+00 1.33904988e-01 1.33904988e-01 4.46349960e-02 0.00000000e+00 8.92699920e-02 1.33904988e-01 1.33904988e-01 1.33904988e-01 1.33904988e-01 3.12444972e-01 4.46349960e-02 4.46349960e-02 4.46349960e-02 8.92699920e-02 1.33904988e-01 4.46349960e-02 4.46349960e-02 4.46349960e-02 8.92699920e-02 -4.46349960e-02 1.78539984e-01 8.92699920e-02 1.33904988e-01 1.78539984e-01 8.92699920e-02 1.78539984e-01 1.78539984e-01 1.33904988e-01 1.78539984e-01 8.92699920e-02 2.23174980e-01 2.23174980e-01 4.46349960e-02 1.78539984e-01 8.92699920e-02 8.92699920e-02 4.46349960e-02 8.92699920e-02 1.78539984e-01 4.46349960e-02 2.23174980e-01 4.46349960e-02 8.92699920e-02 1.33904988e-01 0.00000000e+00 8.92699920e-02 8.92699920e-02 4.46349960e-02 4.46349960e-02 8.92699920e-02 8.92699920e-02 8.92699920e-02 2.23174980e-01 0.00000000e+00 0.00000000e+00 4.46349960e-02 1.33904988e-01 2.23174980e-01 8.92699920e-02 8.92699920e-02 1.78539984e-01 1.33904988e-01 8.92699920e-02 8.92699920e-02 0.00000000e+00 2.23174980e-01 1.33904988e-01 1.33904988e-01 1.33904988e-01 4.46349960e-02 8.92699920e-02 4.46349960e-02 8.92699920e-02 2.23174980e-01 4.46349960e-02 3.57079968e-01 8.92699920e-02 1.33904988e-01 4.46349960e-02 8.92699920e-02 1.33904988e-01 1.33904988e-01 4.46349960e-02 8.92699920e-02 4.46349960e-02 4.46349960e-02 0.00000000e+00 0.00000000e+00 8.92699920e-02 4.46349960e-02 1.78539984e-01 8.92699920e-02 4.46349960e-02 8.92699920e-02 2.23174980e-01 1.33904988e-01 1.78539984e-01 8.92699920e-02 1.33904988e-01 4.46349960e-02 1.33904988e-01 4.46349960e-02 0.00000000e+00 4.46349960e-02 0.00000000e+00 0.00000000e+00 0.00000000e+00 0.00000000e+00 8.92699920e-02 4.46349960e-02 1.78539984e-01 4.46349960e-02 4.46349960e-02 1.33904988e-01 4.46349960e-02 0.00000000e+00 2.67809976e-01 1.33904988e-01 8.92699920e-02 4.46349960e-02 3.12444972e-01 1.33904988e-01 4.46349960e-02 4.46349960e-02 8.92699920e-02 0.00000000e+00 1.78539984e-01 1.78539984e-01 8.92699920e-02 8.92699920e-02 1.78539984e-01 0.00000000e+00 8.92699920e-02 1.33904988e-01 4.46349960e-02 4.46349960e-02 4.46349960e-02 0.00000000e+00 1.78539984e-01 8.92699920e-02 4.46349960e-02 2.23174980e-01 8.92699920e-02 1.33904988e-01 1.78539984e-01 8.92699920e-02 1.33904988e-01 1.33904988e-01 8.92699920e-02 3.57079968e-01 1.33904988e-01 4.46349960e-02 8.92699920e-02 8.92699920e-02 2.23174980e-01 4.46349960e-02 1.33904988e-01 8.92699920e-02 1.33904988e-01 8.92699920e-02 2.67809976e-01 1.33904988e-01 8.92699920e-02 8.92699920e-02 8.92699920e-02 4.46349960e-02 2.67809976e-01 1.33904988e-01 8.92699920e-02 1.33904988e-01 4.46349960e-02 1.78539984e-01 8.92699920e-02 4.46349960e-02 8.92699920e-02 8.92699920e-02 1.78539984e-01 1.33904988e-01 4.46349960e-02 0.00000000e+00 4.46349960e-02 1.33904988e-01 1.33904988e-01 2.67809976e-01 0.00000000e+00 1.33904988e-01 8.92699920e-02 8.92699920e-02 8.92699920e-02 2.23174980e-01 8.92699920e-02 1.33904988e-01 1.33904988e-01 1.33904988e-01 8.92699920e-02 0.00000000e+00 0.00000000e+00 4.46349960e-02 1.33904988e-01 8.92699920e-02 4.46349960e-02 8.92699920e-02 4.46349960e-02 1.33904988e-01 1.33904988e-01 1.33904988e-01 4.46349960e-02 2.23174980e-01 1.33904988e-01 2.23174980e-01 8.92699920e-02 2.23174980e-01 0.00000000e+00 1.78539984e-01 8.92699920e-02 0.00000000e+00 1.33904988e-01 4.46349960e-02 1.78539984e-01 1.78539984e-01 8.92699920e-02 2.23174980e-01 4.46349960e-02 8.92699920e-02 1.78539984e-01 0.00000000e+00 1.78539984e-01 4.46349960e-02 4.46349960e-02 1.78539984e-01 1.33904988e-01 8.92699920e-02 4.46349960e-02 3.12444972e-01 8.92699920e-02 0.00000000e+00 8.92699920e-02 8.92699920e-02 8.92699920e-02 4.46349960e-02 8.92699920e-02 4.46349960e-02 8.92699920e-02 8.92699920e-02 1.33904988e-01 2.67809976e-01 8.92699920e-02 4.46349960e-02 1.33904988e-01 8.92699920e-02 4.46349960e-02 8.92699920e-02 8.92699920e-02 2.23174980e-01 2.23174980e-01 0.00000000e+00 8.92699920e-02 1.78539984e-01 1.33904988e-01 1.33904988e-01 1.78539984e-01 1.78539984e-01 1.33904988e-01 4.46349960e-02 4.46349960e-02 8.92699920e-02 1.33904988e-01 1.78539984e-01 4.46349960e-02 1.78539984e-01 1.33904988e-01 8.92699920e-02 1.78539984e-01 8.92699920e-02 0.00000000e+00 8.92699920e-02 4.46349960e-02 1.33904988e-01 4.46349960e-02 2.23174980e-01 1.78539984e-01 1.33904988e-01 1.33904988e-01 8.92699920e-02 1.78539984e-01 1.33904988e-01 8.92699920e-02 1.78539984e-01 8.92699920e-02 0.00000000e+00 0.00000000e+00 1.33904988e-01 2.23174980e-01 1.33904988e-01 2.23174980e-01 2.67809976e-01 1.78539984e-01 1.78539984e-01 4.46349960e-02 4.46349960e-02 1.78539984e-01 1.33904988e-01 8.92699920e-02 2.23174980e-01 0.00000000e+00 4.46349960e-02 4.46349960e-02 1.33904988e-01 8.92699920e-02 2.23174980e-01 8.92699920e-02 8.92699920e-02 1.33904988e-01 8.92699920e-02 8.92699920e-02 8.92699920e-02 1.78539984e-01 8.92699920e-02 4.46349960e-02 8.92699920e-02 0.00000000e+00 4.46349960e-02 2.23174980e-01 1.33904988e-01 2.23174980e-01 1.33904988e-01 8.92699920e-02 8.92699920e-02 1.78539984e-01 4.46349960e-02 0.00000000e+00 4.46349960e-02 2.67809976e-01 8.92699920e-02 0.00000000e+00 8.92699920e-02 4.46349960e-02 2.23174980e-01 1.33904988e-01 3.57079968e-01 1.33904988e-01 1.78539984e-01 1.78539984e-01 4.46349960e-02 4.46349960e-02 4.46349960e-02 1.33904988e-01 2.23174980e-01 8.92699920e-02 4.46349960e-02 1.33904988e-01 8.92699920e-02 2.23174980e-01 8.92699920e-02 4.46349960e-02 4.46349960e-02 8.92699920e-02 1.33904988e-01 1.33904988e-01 2.23174980e-01 1.33904988e-01 4.46349960e-02 8.92699920e-02 8.92699920e-02 4.46349960e-02 4.46349960e-02 4.46349960e-02 0.00000000e+00 1.33904988e-01 8.92699920e-02 1.33904988e-01 1.78539984e-01 0.00000000e+00 1.33904988e-01 0.00000000e+00 4.46349960e-02 0.00000000e+00 4.46349960e-02 8.92699920e-02 0.00000000e+00 3.12444972e-01 4.46349960e-02 1.78539984e-01 4.46349960e-02 4.46349960e-02 8.92699920e-02 8.92699920e-02 4.46349960e-02 8.92699920e-02 1.33904988e-01 4.46349960e-02 4.46349960e-02 8.92699920e-02 1.33904988e-01 4.46349960e-02 1.33904988e-01 1.33904988e-01 4.46349960e-02 0.00000000e+00 4.46349960e-02 1.78539984e-01 8.92699920e-02 0.00000000e+00 8.92699920e-02 8.92699920e-02 3.12444972e-01 1.33904988e-01 1.78539984e-01 4.46349960e-02 2.67809976e-01 8.92699920e-02 0.00000000e+00 4.46349960e-02 8.92699920e-02 8.92699920e-02 4.46349960e-02 8.92699920e-02 1.78539984e-01 4.46349960e-02 4.46349960e-02 1.33904988e-01 1.78539984e-01 8.92699920e-02 2.67809976e-01 8.92699920e-02 8.92699920e-02 0.00000000e+00 8.92699920e-02 4.46349960e-02 8.92699920e-02 1.33904988e-01 2.23174980e-01 4.46349960e-02 4.46349960e-02 4.46349960e-02 8.92699920e-02 1.78539984e-01 4.46349960e-02 8.92699920e-02 4.46349960e-02 0.00000000e+00 8.92699920e-02 0.00000000e+00 4.46349960e-02 8.92699920e-02 4.46349960e-02 2.23174980e-01 4.46349960e-02 1.33904988e-01 0.00000000e+00 0.00000000e+00 2.23174980e-01 1.78539984e-01 4.46349960e-02 4.46349960e-02 1.33904988e-01 2.67809976e-01 1.78539984e-01 8.92699920e-02 4.46349960e-02 1.33904988e-01 4.46349960e-02 1.33904988e-01 0.00000000e+00 4.46349960e-02 1.33904988e-01 0.00000000e+00 8.92699920e-02 8.92699920e-02 1.33904988e-01 1.33904988e-01 1.78539984e-01 8.92699920e-02 8.92699920e-02 4.46349960e-02 0.00000000e+00 4.46349960e-02 1.33904988e-01 4.46349960e-02 4.46349960e-02 8.92699920e-02 8.92699920e-02 4.46349960e-02 8.92699920e-02 4.46349960e-02 4.46349960e-02 1.33904988e-01 0.00000000e+00 8.92699920e-02 4.46349960e-02 0.00000000e+00 1.33904988e-01 4.46349960e-02 0.00000000e+00 1.78539984e-01 2.23174980e-01 1.33904988e-01 8.92699920e-02 4.46349960e-02 0.00000000e+00 1.33904988e-01 4.46349960e-02 4.46349960e-02 4.46349960e-02 1.33904988e-01 8.92699920e-02 1.33904988e-01 8.92699920e-02 0.00000000e+00 3.12444972e-01 1.33904988e-01 8.92699920e-02 1.78539984e-01 1.78539984e-01 1.33904988e-01 4.46349960e-02 8.92699920e-02 8.92699920e-02 1.33904988e-01 1.78539984e-01 4.46349960e-02 1.33904988e-01 8.92699920e-02 4.46349960e-02 1.33904988e-01 8.92699920e-02 4.46349960e-02 8.92699920e-02 2.23174980e-01 4.46349960e-02 8.92699920e-02 4.46349960e-02 4.46349960e-02 8.92699920e-02 2.23174980e-01 0.00000000e+00 8.92699920e-02 8.92699920e-02 8.92699920e-02 1.78539984e-01 4.46349960e-02 8.92699920e-02 0.00000000e+00 1.33904988e-01 0.00000000e+00 1.78539984e-01 4.46349960e-02 8.92699920e-02 4.46349960e-02 1.33904988e-01 1.33904988e-01 8.92699920e-02 4.46349960e-02 2.23174980e-01 0.00000000e+00 1.33904988e-01 4.46349960e-02 1.33904988e-01 1.33904988e-01 1.78539984e-01 4.46349960e-02 0.00000000e+00 4.46349960e-02 1.33904988e-01 0.00000000e+00 8.92699920e-02 4.46349960e-02 8.92699920e-02 4.46349960e-02 3.57079968e-01 1.78539984e-01 2.67809976e-01 0.00000000e+00 1.33904988e-01 4.46349960e-02 8.92699920e-02 0.00000000e+00 1.33904988e-01 8.92699920e-02 0.00000000e+00 1.78539984e-01 2.23174980e-01 1.33904988e-01 1.78539984e-01 4.46349960e-02 8.92699920e-02 4.46349960e-02 4.46349960e-02 8.92699920e-02 8.92699920e-02 0.00000000e+00 1.33904988e-01 0.00000000e+00 8.92699920e-02 1.78539984e-01 8.92699920e-02 2.23174980e-01 8.92699920e-02 4.46349960e-02 8.92699920e-02 0.00000000e+00 4.46349960e-02 0.00000000e+00 0.00000000e+00 1.33904988e-01 1.78539984e-01 0.00000000e+00 8.92699920e-02 0.00000000e+00 1.33904988e-01 1.78539984e-01 1.33904988e-01 4.46349960e-02 4.46349960e-02 0.00000000e+00 0.00000000e+00 1.78539984e-01 1.33904988e-01 2.23174980e-01 1.78539984e-01 4.46349960e-02 1.33904988e-01 4.46349960e-02 8.92699920e-02 4.46349960e-02 1.33904988e-01 4.46349960e-02 1.78539984e-01 1.78539984e-01 2.23174980e-01 0.00000000e+00 8.92699920e-02 0.00000000e+00 4.46349960e-02 1.78539984e-01 4.46349960e-02 1.78539984e-01 1.78539984e-01 1.33904988e-01 1.33904988e-01 4.46349960e-02 2.23174980e-01 8.92699920e-02 8.92699920e-02 8.92699920e-02 4.46349960e-02 1.33904988e-01 1.33904988e-01 4.46349960e-02 8.92699920e-02 1.78539984e-01 4.46349960e-02 1.78539984e-01 4.46349960e-02 1.78539984e-01 2.67809976e-01 4.46349960e-02 8.92699920e-02 1.78539984e-01 1.33904988e-01 2.23174980e-01 1.33904988e-01 1.78539984e-01 4.46349960e-02 1.78539984e-01 1.33904988e-01 4.46349960e-02 8.92699920e-02 8.92699920e-02 0.00000000e+00 0.00000000e+00 0.00000000e+00 8.92699920e-02 1.78539984e-01 1.33904988e-01 0.00000000e+00 0.00000000e+00 8.92699920e-02 8.92699920e-02 2.23174980e-01 4.46349960e-02 0.00000000e+00 8.92699920e-02 1.78539984e-01 1.33904988e-01 8.92699920e-02 1.33904988e-01 1.78539984e-01 8.92699920e-02 8.92699920e-02 0.00000000e+00 8.92699920e-02 1.33904988e-01 1.33904988e-01 4.46349960e-02 0.00000000e+00 1.78539984e-01 8.92699920e-02 2.67809976e-01 1.33904988e-01 0.00000000e+00 8.92699920e-02 4.46349960e-02 1.33904988e-01 8.92699920e-02 8.92699920e-02 8.92699920e-02 1.78539984e-01 4.46349960e-02 8.92699920e-02 4.46349960e-02 8.92699920e-02 4.46349960e-02 1.33904988e-01 1.78539984e-01 8.92699920e-02 1.33904988e-01 4.46349960e-02 2.23174980e-01 8.92699920e-02 8.92699920e-02 8.92699920e-02 1.33904988e-01 8.92699920e-02 8.92699920e-02 2.23174980e-01 8.92699920e-02 1.33904988e-01 4.46349960e-02 8.92699920e-02 8.92699920e-02 1.33904988e-01 4.46349960e-02 8.92699920e-02 4.46349960e-02 4.46349960e-02 1.33904988e-01 8.92699920e-02 8.92699920e-02 8.92699920e-02 4.46349960e-02 0.00000000e+00 4.46349960e-02 8.92699920e-02 1.78539984e-01 8.92699920e-02 4.46349960e-02 8.92699920e-02 4.46349960e-02 1.33904988e-01 4.46349960e-02 4.46349960e-02 8.92699920e-02 8.92699920e-02 1.33904988e-01 0.00000000e+00 1.33904988e-01 8.92699920e-02 8.92699920e-02 4.46349960e-02 1.78539984e-01 0.00000000e+00 0.00000000e+00 8.92699920e-02 8.92699920e-02 0.00000000e+00 8.92699920e-02 0.00000000e+00 2.23174980e-01 8.92699920e-02 4.46349960e-02 8.92699920e-02 4.46349960e-02 4.46349960e-02 0.00000000e+00 0.00000000e+00 8.92699920e-02 1.33904988e-01 1.33904988e-01 8.92699920e-02 3.57079968e-01 8.92699920e-02 4.46349960e-02 0.00000000e+00 4.46349960e-02 8.92699920e-02 2.23174980e-01 1.33904988e-01 1.33904988e-01 1.78539984e-01 0.00000000e+00 1.33904988e-01 2.23174980e-01 4.46349960e-02 8.92699920e-02 4.46349960e-02 4.46349960e-02 2.23174980e-01 1.33904988e-01 1.33904988e-01 1.33904988e-01 8.92699920e-02 8.92699920e-02 8.92699920e-02 1.33904988e-01 8.92699920e-02 1.78539984e-01 1.33904988e-01 8.92699920e-02 8.92699920e-02 8.92699920e-02 4.46349960e-02 8.92699920e-02 4.46349960e-02 1.78539984e-01 0.00000000e+00 4.46349960e-02 1.33904988e-01 1.33904988e-01 8.92699920e-02 1.33904988e-01 8.92699920e-02 1.33904988e-01 4.46349960e-02 1.33904988e-01 1.33904988e-01 4.46349960e-02 0.00000000e+00 1.33904988e-01 4.46349960e-02 4.46349960e-02 8.92699920e-02 2.23174980e-01 4.46349960e-02 8.92699920e-02 0.00000000e+00 0.00000000e+00 1.78539984e-01 4.46349960e-02 8.92699920e-02 0.00000000e+00 0.00000000e+00 0.00000000e+00 1.33904988e-01 8.92699920e-02 4.46349960e-02 1.78539984e-01 0.00000000e+00 2.23174980e-01 8.92699920e-02 8.92699920e-02 2.23174980e-01 8.92699920e-02 1.33904988e-01 8.92699920e-02 8.92699920e-02 8.92699920e-02 4.46349960e-02 8.92699920e-02 8.92699920e-02 4.46349960e-02 0.00000000e+00 8.92699920e-02 4.46349960e-02 8.92699920e-02 0.00000000e+00 8.92699920e-02 8.92699920e-02 1.78539984e-01 1.78539984e-01 8.92699920e-02 1.33904988e-01 2.67809976e-01 1.33904988e-01 4.46349960e-02 8.92699920e-02 0.00000000e+00 1.33904988e-01 8.92699920e-02 4.46349960e-02 4.46349960e-02 1.78539984e-01 4.46349960e-02 4.46349960e-02 8.92699920e-02 2.23174980e-01 4.46349960e-02 1.78539984e-01 1.78539984e-01 8.92699920e-02 4.46349960e-02 4.46349960e-02 1.33904988e-01 1.33904988e-01 1.33904988e-01 8.92699920e-02 1.33904988e-01 4.46349960e-02 4.46349960e-02 2.23174980e-01 2.23174980e-01 4.46349960e-02 4.46349960e-02 0.00000000e+00 4.46349960e-02 8.92699920e-02 8.92699920e-02 4.46349960e-02 1.78539984e-01 8.92699920e-02 8.92699920e-02 0.00000000e+00 8.92699920e-02 4.46349960e-02 1.33904988e-01 1.78539984e-01 1.33904988e-01 4.46349960e-02 8.92699920e-02 1.78539984e-01 8.92699920e-02 8.92699920e-02 1.78539984e-01 4.46349960e-02 8.92699920e-02 1.33904988e-01 8.92699920e-02 4.46349960e-02 0.00000000e+00 0.00000000e+00 1.33904988e-01 8.92699920e-02 8.92699920e-02 0.00000000e+00 0.00000000e+00 0.00000000e+00 1.33904988e-01 0.00000000e+00 8.92699920e-02 4.46349960e-02 8.92699920e-02 4.46349960e-02 4.46349960e-02 8.92699920e-02 4.46349960e-02 1.78539984e-01 4.46349960e-02 4.46349960e-02 8.92699920e-02 4.46349960e-02 4.46349960e-02 4.46349960e-02 8.92699920e-02 0.00000000e+00 3.57079968e-01 1.78539984e-01 1.33904988e-01 1.33904988e-01 8.92699920e-02 1.33904988e-01 8.92699920e-02 4.46349960e-02 1.78539984e-01 0.00000000e+00 4.46349960e-02 0.00000000e+00 8.92699920e-02 8.92699920e-02 1.33904988e-01 0.00000000e+00 1.33904988e-01 0.00000000e+00 8.92699920e-02 8.92699920e-02 8.92699920e-02 2.23174980e-01 1.33904988e-01 1.33904988e-01 2.23174980e-01 1.33904988e-01 8.92699920e-02 1.33904988e-01 8.92699920e-02 4.46349960e-02 8.92699920e-02 1.33904988e-01 4.46349960e-02 1.33904988e-01 3.57079968e-01 0.00000000e+00 0.00000000e+00 1.33904988e-01 0.00000000e+00 3.57079968e-01 4.46349960e-02 1.33904988e-01 4.46349960e-02 8.92699920e-02 2.23174980e-01 1.33904988e-01 8.92699920e-02 4.46349960e-02 8.92699920e-02 8.92699920e-02 8.92699920e-02 1.33904988e-01 4.46349960e-02 8.92699920e-02 1.33904988e-01 1.33904988e-01 4.46349960e-02 1.33904988e-01 1.33904988e-01 1.78539984e-01 1.33904988e-01 8.92699920e-02 1.33904988e-01 8.92699920e-02 4.46349960e-02 4.46349960e-02 4.46349960e-02 4.46349960e-02 4.46349960e-02 4.46349960e-02 1.33904988e-01 2.23174980e-01 1.33904988e-01 1.33904988e-01 0.00000000e+00 4.46349960e-02 8.92699920e-02 8.92699920e-02 1.33904988e-01 2.23174980e-01 8.92699920e-02 4.46349960e-02 8.92699920e-02 1.33904988e-01 4.46349960e-02 8.92699920e-02 1.33904988e-01 4.46349960e-02 4.46349960e-02 0.00000000e+00 4.46349960e-02 1.33904988e-01 1.33904988e-01 4.46349960e-02 8.92699920e-02 1.78539984e-01 4.46349960e-02 1.78539984e-01 4.46349960e-02 1.78539984e-01 1.78539984e-01 0.00000000e+00 4.46349960e-02 1.33904988e-01 4.46349960e-02 4.46349960e-02 0.00000000e+00 8.92699920e-02 1.78539984e-01 1.33904988e-01 1.78539984e-01 2.23174980e-01 2.23174980e-01 8.92699920e-02 0.00000000e+00 8.92699920e-02 1.33904988e-01 4.46349960e-02 8.92699920e-02 1.78539984e-01 4.46349960e-02 1.33904988e-01 1.78539984e-01 8.92699920e-02 4.46349960e-02 1.33904988e-01 8.92699920e-02 2.23174980e-01 4.46349960e-02 1.78539984e-01 8.92699920e-02 8.92699920e-02 4.46349960e-02 4.46349960e-02 8.92699920e-02 1.33904988e-01 4.46349960e-02 0.00000000e+00 8.92699920e-02 0.00000000e+00 4.46349960e-02 4.46349960e-02 8.92699920e-02 0.00000000e+00 1.33904988e-01 4.46349960e-02 0.00000000e+00 4.46349960e-02 1.78539984e-01 1.33904988e-01 1.78539984e-01 4.46349960e-02 4.46349960e-02 1.33904988e-01 8.92699920e-02 8.92699920e-02 1.33904988e-01 8.92699920e-02 4.46349960e-02 2.23174980e-01 0.00000000e+00 4.46349960e-02 4.46349960e-02 0.00000000e+00 1.33904988e-01 8.92699920e-02 4.46349960e-02 1.33904988e-01 4.46349960e-02 8.92699920e-02 1.33904988e-01 8.92699920e-02 4.46349960e-02 8.92699920e-02 4.46349960e-02 0.00000000e+00 0.00000000e+00 0.00000000e+00 4.46349960e-02 4.46349960e-02 8.92699920e-02 1.78539984e-01 1.78539984e-01 2.67809976e-01 1.33904988e-01 1.33904988e-01 8.92699920e-02 0.00000000e+00 4.46349960e-02 4.46349960e-02 0.00000000e+00 4.46349960e-02 4.46349960e-02 4.46349960e-02 8.92699920e-02 0.00000000e+00 4.46349960e-02 8.92699920e-02 4.46349960e-02 4.46349960e-02 1.33904988e-01 8.92699920e-02 8.92699920e-02 8.92699920e-02 1.33904988e-01 0.00000000e+00 8.92699920e-02 4.46349960e-02 1.33904988e-01 4.46349960e-02 8.92699920e-02 1.33904988e-01 8.92699920e-02 4.46349960e-02 8.92699920e-02 2.23174980e-01 0.00000000e+00 0.00000000e+00 0.00000000e+00 8.92699920e-02 1.78539984e-01 1.78539984e-01 8.92699920e-02 1.33904988e-01 1.78539984e-01 2.67809976e-01 1.33904988e-01 4.46349960e-02 4.46349960e-02 4.46349960e-02 8.92699920e-02 4.46349960e-02 2.67809976e-01 8.92699920e-02 8.92699920e-02 1.78539984e-01 1.78539984e-01 0.00000000e+00 2.23174980e-01 1.33904988e-01 8.92699920e-02 8.92699920e-02 1.33904988e-01 1.78539984e-01 0.00000000e+00 0.00000000e+00 8.92699920e-02 2.23174980e-01 1.33904988e-01 1.33904988e-01 1.78539984e-01 4.46349960e-02 4.46349960e-02 0.00000000e+00 8.92699920e-02 4.46349960e-02 8.92699920e-02 8.92699920e-02 1.78539984e-01 1.78539984e-01 4.46349960e-02 1.78539984e-01 4.46349960e-02 8.92699920e-02 1.33904988e-01 2.67809976e-01 4.46349960e-02 8.92699920e-02 0.00000000e+00 0.00000000e+00 4.46349960e-02 4.46349960e-02 1.78539984e-01 4.46349960e-02 0.00000000e+00 4.46349960e-02 8.92699920e-02 0.00000000e+00 4.46349960e-02 -4.46349960e-02 8.92699920e-02 4.46349960e-02 8.92699920e-02 8.92699920e-02 1.33904988e-01 2.23174980e-01 0.00000000e+00 4.46349960e-02 1.78539984e-01 1.78539984e-01 1.33904988e-01 8.92699920e-02 4.46349960e-02 0.00000000e+00 8.92699920e-02 1.33904988e-01 1.33904988e-01 2.67809976e-01 2.23174980e-01 2.23174980e-01 0.00000000e+00 1.33904988e-01 1.78539984e-01 8.92699920e-02 8.92699920e-02 2.23174980e-01 1.78539984e-01 4.01714964e-01 1.78539984e-01 2.23174980e-01 2.67809976e-01 4.46349960e-02 0.00000000e+00 8.92699920e-02 1.33904988e-01 2.23174980e-01 8.92699920e-02 2.23174980e-01 8.92699920e-02 8.92699920e-02 4.46349960e-02 4.46349960e-02 1.78539984e-01 8.92699920e-02 2.67809976e-01 1.33904988e-01 1.33904988e-01 2.23174980e-01 4.46349960e-02 2.67809976e-01 8.92699920e-02 8.92699920e-02 1.78539984e-01 8.92699920e-02 4.46349960e-02 4.46349960e-02 8.92699920e-02 8.92699920e-02 4.46349960e-02 1.33904988e-01 4.46349960e-02 4.46349960e-02 4.46349960e-02 8.92699920e-02 0.00000000e+00 1.78539984e-01 2.23174980e-01 1.78539984e-01 4.46349960e-02 4.46349960e-02 1.33904988e-01 8.92699920e-02 2.23174980e-01 4.46349960e-02 1.78539984e-01 4.46349960e-02 8.92699920e-02 8.92699920e-02 1.33904988e-01 4.46349960e-02 4.46349960e-02 8.92699920e-02 2.23174980e-01 8.92699920e-02 4.46349960e-02 0.00000000e+00 1.78539984e-01 0.00000000e+00 2.23174980e-01 1.78539984e-01 8.92699920e-02 4.46349960e-02 1.33904988e-01 2.23174980e-01 8.92699920e-02 4.46349960e-02 4.46349960e-02 1.33904988e-01 1.78539984e-01 4.46349960e-02 1.33904988e-01 2.23174980e-01 4.46349960e-02 1.33904988e-01 0.00000000e+00 1.78539984e-01 1.33904988e-01 1.33904988e-01 8.92699920e-02 4.46349960e-02 8.92699920e-02 4.46349960e-02 0.00000000e+00 4.46349960e-02 4.46349960e-02 1.33904988e-01 2.23174980e-01 0.00000000e+00 0.00000000e+00 1.78539984e-01 1.33904988e-01 8.92699920e-02 0.00000000e+00 4.46349960e-02 1.33904988e-01 1.33904988e-01 1.78539984e-01 1.78539984e-01 4.46349960e-02 8.92699920e-02 0.00000000e+00 4.46349960e-02 4.46349960e-02 2.23174980e-01 1.78539984e-01 -4.46349960e-02 8.92699920e-02 4.46349960e-02 4.46349960e-02 8.92699920e-02 0.00000000e+00 1.33904988e-01 1.33904988e-01 4.46349960e-02 4.46349960e-02 4.46349960e-02 1.78539984e-01 4.46349960e-02 4.46349960e-02 8.92699920e-02 8.92699920e-02 8.92699920e-02 2.23174980e-01 8.92699920e-02 4.46349960e-02 1.33904988e-01 8.92699920e-02 8.92699920e-02 0.00000000e+00 8.92699920e-02 1.78539984e-01 8.92699920e-02 0.00000000e+00 4.46349960e-02 4.46349960e-02 4.46349960e-02 8.92699920e-02 4.46349960e-02 0.00000000e+00 4.46349960e-02 8.92699920e-02 1.33904988e-01 1.33904988e-01 0.00000000e+00 4.46349960e-02 4.46349960e-02 4.46349960e-02 8.92699920e-02 8.92699920e-02 8.92699920e-02 8.92699920e-02 4.46349960e-02 1.33904988e-01 0.00000000e+00 1.78539984e-01 1.78539984e-01 1.33904988e-01 8.92699920e-02 8.92699920e-02 1.78539984e-01 1.33904988e-01 4.46349960e-02 1.33904988e-01 4.46349960e-02 4.46349960e-02 4.46349960e-02 4.46349960e-02 4.46349960e-02 8.92699920e-02 1.33904988e-01 1.33904988e-01 0.00000000e+00 8.92699920e-02 0.00000000e+00 4.46349960e-02 0.00000000e+00 8.92699920e-02 4.46349960e-02 8.92699920e-02 4.46349960e-02 1.33904988e-01 4.46349960e-02 0.00000000e+00 2.23174980e-01 4.46349960e-02 0.00000000e+00 0.00000000e+00 0.00000000e+00 4.46349960e-02 4.46349960e-02 4.46349960e-02 4.46349960e-02 8.92699920e-02 4.46349960e-02 4.46349960e-02 2.23174980e-01 8.92699920e-02 8.92699920e-02 2.23174980e-01 0.00000000e+00 8.92699920e-02 1.78539984e-01 4.46349960e-02 8.92699920e-02 8.92699920e-02 8.92699920e-02 0.00000000e+00 1.78539984e-01 8.92699920e-02 1.78539984e-01 4.46349960e-02 8.92699920e-02 4.46349960e-02 8.92699920e-02 0.00000000e+00 1.78539984e-01 8.92699920e-02 4.46349960e-02 4.46349960e-02 0.00000000e+00 4.46349960e-02 4.46349960e-02 1.78539984e-01 1.78539984e-01 1.78539984e-01 8.92699920e-02 2.67809976e-01 0.00000000e+00 8.92699920e-02 4.46349960e-02 4.46349960e-02 1.33904988e-01 4.46349960e-02 8.92699920e-02 8.92699920e-02 8.92699920e-02 4.46349960e-02 4.46349960e-02 1.78539984e-01 4.46349960e-02 8.92699920e-02 0.00000000e+00 4.46349960e-02 4.46349960e-02 0.00000000e+00 8.92699920e-02 8.92699920e-02 1.78539984e-01 1.33904988e-01 8.92699920e-02 1.33904988e-01 2.23174980e-01 2.23174980e-01 4.46349960e-02 4.46349960e-02 1.33904988e-01 8.92699920e-02 2.23174980e-01 0.00000000e+00 4.46349960e-02 4.46349960e-02 1.78539984e-01 2.23174980e-01 1.33904988e-01 8.92699920e-02 4.46349960e-02 4.46349960e-02 4.46349960e-02 1.78539984e-01 8.92699920e-02 8.92699920e-02 8.92699920e-02 8.92699920e-02 8.92699920e-02 1.33904988e-01 4.46349960e-02 1.33904988e-01 1.33904988e-01 8.92699920e-02 8.92699920e-02 4.46349960e-02 1.78539984e-01 8.92699920e-02 2.67809976e-01 4.46349960e-02 0.00000000e+00 4.46349960e-02 1.33904988e-01 4.46349960e-02 8.92699920e-02 1.33904988e-01 1.33904988e-01 3.57079968e-01 8.92699920e-02 1.33904988e-01 4.46349960e-02 0.00000000e+00 1.33904988e-01 1.78539984e-01 1.78539984e-01 8.92699920e-02 8.92699920e-02 8.92699920e-02 4.46349960e-02 2.23174980e-01 1.33904988e-01 4.46349960e-02 1.33904988e-01 4.46349960e-02 1.33904988e-01 2.67809976e-01 8.92699920e-02 0.00000000e+00 8.92699920e-02 2.23174980e-01 8.92699920e-02 1.33904988e-01 1.33904988e-01 1.78539984e-01 1.33904988e-01 0.00000000e+00 1.33904988e-01 1.78539984e-01 1.33904988e-01 1.33904988e-01 4.46349960e-02 8.92699920e-02 2.23174980e-01 8.92699920e-02 8.92699920e-02 8.92699920e-02 4.46349960e-02 8.92699920e-02 1.33904988e-01 8.92699920e-02 4.46349960e-02 1.78539984e-01 1.78539984e-01 8.92699920e-02 8.92699920e-02 0.00000000e+00 1.33904988e-01 4.46349960e-02 1.33904988e-01 4.46349960e-02 0.00000000e+00 4.46349960e-02 1.78539984e-01 8.92699920e-02 1.33904988e-01 8.92699920e-02 4.46349960e-02 1.33904988e-01 8.92699920e-02 8.92699920e-02 8.92699920e-02 4.46349960e-02 8.92699920e-02 1.33904988e-01 1.33904988e-01 4.46349960e-02 0.00000000e+00 4.46349960e-02 4.46349960e-02 4.46349960e-02 4.46349960e-02 1.78539984e-01 4.46349960e-02 0.00000000e+00 0.00000000e+00 1.33904988e-01 1.78539984e-01 1.33904988e-01 1.33904988e-01 4.46349960e-02 3.12444972e-01 8.92699920e-02 4.46349960e-02 8.92699920e-02 8.92699920e-02 4.46349960e-02 1.33904988e-01 8.92699920e-02 4.46349960e-02 1.78539984e-01 4.46349960e-02 0.00000000e+00 1.33904988e-01 2.67809976e-01 0.00000000e+00 1.33904988e-01 8.92699920e-02 1.78539984e-01 8.92699920e-02 1.33904988e-01 8.92699920e-02 8.92699920e-02 8.92699920e-02 1.33904988e-01 4.46349960e-02 4.46349960e-02 1.78539984e-01 1.78539984e-01 0.00000000e+00 1.33904988e-01 8.92699920e-02 4.46349960e-02 4.46349960e-02 4.46349960e-02 4.46349960e-02 8.92699920e-02 8.92699920e-02 4.46349960e-02 2.23174980e-01 8.92699920e-02 4.46349960e-02 1.33904988e-01 4.46349960e-02 8.92699920e-02 4.46349960e-02 4.46349960e-02 4.46349960e-02 1.78539984e-01 1.33904988e-01 0.00000000e+00 1.33904988e-01 4.46349960e-02 1.78539984e-01 1.78539984e-01 0.00000000e+00 8.92699920e-02 8.92699920e-02 4.46349960e-02 8.92699920e-02 8.92699920e-02 8.92699920e-02 2.23174980e-01 4.46349960e-02 1.78539984e-01 8.92699920e-02 0.00000000e+00 4.46349960e-02 8.92699920e-02 2.23174980e-01 0.00000000e+00 1.78539984e-01 1.78539984e-01 0.00000000e+00 8.92699920e-02 0.00000000e+00 1.33904988e-01 8.92699920e-02 8.92699920e-02 1.33904988e-01 1.33904988e-01 1.33904988e-01 2.23174980e-01 4.46349960e-02 8.92699920e-02 4.46349960e-02 1.33904988e-01 1.33904988e-01 0.00000000e+00 8.92699920e-02 4.46349960e-02 8.92699920e-02 2.23174980e-01 1.78539984e-01 1.78539984e-01 0.00000000e+00 4.46349960e-02 8.92699920e-02 8.92699920e-02 1.33904988e-01 8.92699920e-02 8.92699920e-02 8.92699920e-02 1.33904988e-01 4.46349960e-02 4.46349960e-02 8.92699920e-02 4.46349960e-02 8.92699920e-02 0.00000000e+00 1.33904988e-01 4.46349960e-02 1.33904988e-01 1.33904988e-01 4.46349960e-02 8.92699920e-02 4.46349960e-02 4.46349960e-02 8.92699920e-02 2.23174980e-01 4.46349960e-02 8.92699920e-02 1.33904988e-01 4.46349960e-02 1.78539984e-01 8.92699920e-02 8.92699920e-02 8.92699920e-02 8.92699920e-02 0.00000000e+00 4.46349960e-02 1.78539984e-01 2.67809976e-01 1.78539984e-01 4.46349960e-02 2.23174980e-01 4.46349960e-02 8.92699920e-02 4.46349960e-02 1.33904988e-01 8.92699920e-02 2.23174980e-01 1.78539984e-01 0.00000000e+00 0.00000000e+00 2.67809976e-01 8.92699920e-02 4.46349960e-02 8.92699920e-02 8.92699920e-02 4.46349960e-02 8.92699920e-02 1.33904988e-01 4.46349960e-02 4.46349960e-02 1.78539984e-01 2.23174980e-01 4.46349960e-02 2.23174980e-01 4.46349960e-02 8.92699920e-02 4.46349960e-02 8.92699920e-02 8.92699920e-02 1.78539984e-01 0.00000000e+00 4.46349960e-02 4.46349960e-02 8.92699920e-02 2.67809976e-01 4.46349960e-02 4.46349960e-02 2.23174980e-01 4.46349960e-02 8.92699920e-02 8.92699920e-02 1.78539984e-01 4.46349960e-02 0.00000000e+00 1.33904988e-01 8.92699920e-02 1.33904988e-01 1.33904988e-01 8.92699920e-02 1.33904988e-01 1.33904988e-01 0.00000000e+00 1.33904988e-01 2.23174980e-01 1.33904988e-01 8.92699920e-02 0.00000000e+00 1.78539984e-01 4.46349960e-02 8.92699920e-02 8.92699920e-02 8.92699920e-02 2.23174980e-01 1.33904988e-01 1.78539984e-01 2.67809976e-01 0.00000000e+00 1.33904988e-01 1.78539984e-01 8.92699920e-02 0.00000000e+00 2.23174980e-01 0.00000000e+00 0.00000000e+00 8.92699920e-02 4.46349960e-02 1.33904988e-01 2.23174980e-01 2.23174980e-01 1.78539984e-01 4.46349960e-02 8.92699920e-02 1.78539984e-01 8.92699920e-02 1.78539984e-01 4.46349960e-02 4.46349960e-02 8.92699920e-02 1.78539984e-01 1.33904988e-01 4.46349960e-02 4.46349960e-02 1.78539984e-01 2.23174980e-01 4.46349960e-02 4.46349960e-02 0.00000000e+00 8.92699920e-02 4.46349960e-02 8.92699920e-02 4.46349960e-02 8.92699920e-02 8.92699920e-02 4.46349960e-02 0.00000000e+00 1.33904988e-01 4.46349960e-02 2.23174980e-01 8.92699920e-02 4.46349960e-02 1.78539984e-01 4.46349960e-02 8.92699920e-02 2.23174980e-01 4.46349960e-02 4.46349960e-02 0.00000000e+00 1.33904988e-01 1.33904988e-01 8.92699920e-02 4.46349960e-02 4.46349960e-02 4.46349960e-02 8.92699920e-02 4.46349960e-02 8.92699920e-02 8.92699920e-02 1.78539984e-01 8.92699920e-02 1.33904988e-01 1.78539984e-01 1.33904988e-01 1.33904988e-01 4.46349960e-02 1.78539984e-01 4.46349960e-02 4.46349960e-02 8.92699920e-02 8.92699920e-02 8.92699920e-02 1.33904988e-01 0.00000000e+00 1.78539984e-01 1.78539984e-01 4.46349960e-02 2.23174980e-01 1.33904988e-01 1.33904988e-01 0.00000000e+00 4.46349960e-02 0.00000000e+00 4.46349960e-02 1.33904988e-01 4.46349960e-02 0.00000000e+00 4.46349960e-02 1.78539984e-01 4.46349960e-02 1.78539984e-01 1.33904988e-01 4.46349960e-02 4.46349960e-02 1.78539984e-01 1.33904988e-01 0.00000000e+00 4.46349960e-02 4.46349960e-02 1.78539984e-01 1.33904988e-01 4.46349960e-02 1.33904988e-01 4.46349960e-02 1.78539984e-01 0.00000000e+00 1.78539984e-01 8.92699920e-02 8.92699920e-02 1.78539984e-01 4.46349960e-02 4.46349960e-02 8.92699920e-02 0.00000000e+00 1.78539984e-01 8.92699920e-02 8.92699920e-02 8.92699920e-02 8.92699920e-02 2.23174980e-01 1.78539984e-01 4.46349960e-02 0.00000000e+00 1.33904988e-01 0.00000000e+00 4.46349960e-02 1.33904988e-01 1.33904988e-01 1.78539984e-01 1.33904988e-01 4.46349960e-02 1.33904988e-01 8.92699920e-02 1.33904988e-01 0.00000000e+00 8.92699920e-02 2.23174980e-01 8.92699920e-02 1.78539984e-01 1.33904988e-01 1.33904988e-01 4.46349960e-02 2.23174980e-01 4.46349960e-02 1.78539984e-01 8.92699920e-02 2.23174980e-01 4.46349960e-02 4.46349960e-02 1.78539984e-01 4.46349960e-02 1.33904988e-01 0.00000000e+00 1.33904988e-01 4.46349960e-02 4.46349960e-02 2.67809976e-01 1.33904988e-01 1.33904988e-01 4.46349960e-02 4.46349960e-02 1.33904988e-01 4.46349960e-02 8.92699920e-02 4.46349960e-02 1.78539984e-01 1.78539984e-01 1.78539984e-01 1.33904988e-01 4.46349960e-02 1.33904988e-01 1.33904988e-01 8.92699920e-02 0.00000000e+00 8.92699920e-02 8.92699920e-02 8.92699920e-02 1.33904988e-01 1.33904988e-01 8.92699920e-02 2.23174980e-01 1.78539984e-01 8.92699920e-02 4.46349960e-02 2.23174980e-01 2.67809976e-01 4.46349960e-02 0.00000000e+00 1.33904988e-01 1.33904988e-01 8.92699920e-02 1.33904988e-01 8.92699920e-02 1.78539984e-01 8.92699920e-02 8.92699920e-02 8.92699920e-02 8.92699920e-02 2.23174980e-01 8.92699920e-02 1.33904988e-01 0.00000000e+00 8.92699920e-02 1.33904988e-01 4.46349960e-02 1.33904988e-01 4.46349960e-02 1.33904988e-01 1.78539984e-01 8.92699920e-02 0.00000000e+00 1.33904988e-01 1.33904988e-01 1.78539984e-01 0.00000000e+00 1.33904988e-01 4.46349960e-02 1.78539984e-01 0.00000000e+00 8.92699920e-02 8.92699920e-02 4.46349960e-02 8.92699920e-02 8.92699920e-02 4.46349960e-02 0.00000000e+00 4.46349960e-02 4.46349960e-02 8.92699920e-02 8.92699920e-02 8.92699920e-02 8.92699920e-02 1.33904988e-01 8.92699920e-02 1.33904988e-01 2.23174980e-01 4.46349960e-02 8.92699920e-02 8.92699920e-02 1.33904988e-01 8.92699920e-02 1.33904988e-01 1.33904988e-01 4.46349960e-02 3.12444972e-01 2.23174980e-01 0.00000000e+00 4.46349960e-02 4.46349960e-02 8.92699920e-02 8.92699920e-02 1.78539984e-01 1.78539984e-01 8.92699920e-02 8.92699920e-02 4.46349960e-02 1.78539984e-01 0.00000000e+00 8.92699920e-02 4.46349960e-02 0.00000000e+00 8.92699920e-02 4.46349960e-02 2.67809976e-01 1.78539984e-01 1.78539984e-01 1.78539984e-01 8.92699920e-02 1.33904988e-01 8.92699920e-02 4.46349960e-02 8.92699920e-02 0.00000000e+00 4.46349960e-02 4.46349960e-02 2.23174980e-01 4.46349960e-02 8.92699920e-02 8.92699920e-02 4.46349960e-02 8.92699920e-02 1.33904988e-01 1.78539984e-01 4.46349960e-02 1.33904988e-01 8.92699920e-02 4.46349960e-02 4.46349960e-02 4.46349960e-02 8.92699920e-02 1.33904988e-01 4.46349960e-02 1.33904988e-01 0.00000000e+00 1.33904988e-01 4.46349960e-02 0.00000000e+00 8.92699920e-02 8.92699920e-02 8.92699920e-02 1.78539984e-01 8.92699920e-02 1.33904988e-01 4.46349960e-02 0.00000000e+00 1.78539984e-01 8.92699920e-02 2.67809976e-01 8.92699920e-02 0.00000000e+00 4.46349960e-02 0.00000000e+00 1.33904988e-01 8.92699920e-02 1.33904988e-01 3.12444972e-01 0.00000000e+00 0.00000000e+00 1.33904988e-01 4.46349960e-02 1.33904988e-01 1.33904988e-01 1.33904988e-01 1.33904988e-01 1.33904988e-01 1.33904988e-01 4.46349960e-02 1.33904988e-01 2.67809976e-01 8.92699920e-02 4.46349960e-02 8.92699920e-02 8.92699920e-02 2.23174980e-01 0.00000000e+00 8.92699920e-02 4.46349960e-02 1.78539984e-01 8.92699920e-02 0.00000000e+00 1.33904988e-01 0.00000000e+00 8.92699920e-02 0.00000000e+00 2.23174980e-01 0.00000000e+00 2.67809976e-01 8.92699920e-02 1.78539984e-01 1.78539984e-01 8.92699920e-02 1.33904988e-01 2.23174980e-01 8.92699920e-02 8.92699920e-02 2.23174980e-01 8.92699920e-02 1.33904988e-01 4.46349960e-02 4.46349960e-02 2.23174980e-01 1.33904988e-01 8.92699920e-02 0.00000000e+00 0.00000000e+00 4.46349960e-02 4.46349960e-02 2.23174980e-01 1.33904988e-01 1.78539984e-01 8.92699920e-02 1.78539984e-01 1.78539984e-01 8.92699920e-02 8.92699920e-02 8.92699920e-02 1.33904988e-01 4.46349960e-02 0.00000000e+00 0.00000000e+00 0.00000000e+00 1.78539984e-01 8.92699920e-02 8.92699920e-02 8.92699920e-02 1.33904988e-01 2.23174980e-01 8.92699920e-02 2.23174980e-01 8.92699920e-02 0.00000000e+00 2.23174980e-01 8.92699920e-02 8.92699920e-02 0.00000000e+00 4.46349960e-02 4.46349960e-02 4.46349960e-02 8.92699920e-02 0.00000000e+00 4.46349960e-02 1.33904988e-01 4.46349960e-02 0.00000000e+00 4.46349960e-02 1.78539984e-01 1.33904988e-01 1.78539984e-01 1.78539984e-01 8.92699920e-02 8.92699920e-02 8.92699920e-02 8.92699920e-02 0.00000000e+00 1.33904988e-01 4.46349960e-02 8.92699920e-02 4.46349960e-02 1.33904988e-01 4.46349960e-02 4.46349960e-02 2.23174980e-01 1.78539984e-01 1.33904988e-01 0.00000000e+00 8.92699920e-02 8.92699920e-02 4.46349960e-02 0.00000000e+00 1.78539984e-01 8.92699920e-02 8.92699920e-02 1.78539984e-01 4.46349960e-02 1.78539984e-01 1.33904988e-01 8.92699920e-02 8.92699920e-02 4.46349960e-02 4.46349960e-02 4.46349960e-02 8.92699920e-02 8.92699920e-02 1.33904988e-01 8.92699920e-02 0.00000000e+00 1.33904988e-01 8.92699920e-02 1.33904988e-01 8.92699920e-02 2.67809976e-01 4.46349960e-02 1.78539984e-01 2.67809976e-01 4.46349960e-02 4.46349960e-02 2.23174980e-01 3.12444972e-01 2.67809976e-01 1.33904988e-01 8.92699920e-02 1.33904988e-01 1.33904988e-01 1.33904988e-01 8.92699920e-02 8.92699920e-02 2.67809976e-01 8.92699920e-02 8.92699920e-02 8.92699920e-02 1.33904988e-01 0.00000000e+00 4.46349960e-02 4.46349960e-02 4.46349960e-02 1.33904988e-01 1.78539984e-01 4.46349960e-02 1.33904988e-01 8.92699920e-02 8.92699920e-02 8.92699920e-02 4.46349960e-02 8.92699920e-02 0.00000000e+00 1.33904988e-01 2.67809976e-01 4.46349960e-02 1.78539984e-01 0.00000000e+00 0.00000000e+00 2.23174980e-01 1.78539984e-01 8.92699920e-02 1.33904988e-01 8.92699920e-02 1.78539984e-01 4.46349960e-02 0.00000000e+00 8.92699920e-02 1.33904988e-01 0.00000000e+00 8.92699920e-02 4.46349960e-02 8.92699920e-02 1.33904988e-01 1.33904988e-01 8.92699920e-02 1.33904988e-01 1.33904988e-01 8.92699920e-02 2.23174980e-01 8.92699920e-02 0.00000000e+00 1.78539984e-01 1.78539984e-01 0.00000000e+00 0.00000000e+00 1.78539984e-01 1.33904988e-01 8.92699920e-02 1.33904988e-01 8.92699920e-02 1.78539984e-01 1.78539984e-01 8.92699920e-02 4.46349960e-02 1.33904988e-01 8.92699920e-02 8.92699920e-02 4.46349960e-02 8.92699920e-02 8.92699920e-02 4.46349960e-02 1.33904988e-01 4.46349960e-02 8.92699920e-02 1.33904988e-01 1.78539984e-01 4.46349960e-02 4.46349960e-02 4.46349960e-02 4.46349960e-02 8.92699920e-02 8.92699920e-02 4.46349960e-02 1.33904988e-01 8.92699920e-02 1.33904988e-01 0.00000000e+00 1.33904988e-01 4.46349960e-02 8.92699920e-02 4.46349960e-02 1.33904988e-01 0.00000000e+00 4.46349960e-02 1.33904988e-01 1.33904988e-01 1.33904988e-01 4.46349960e-02 1.33904988e-01 1.33904988e-01 8.92699920e-02 1.33904988e-01 8.92699920e-02 0.00000000e+00 0.00000000e+00 8.92699920e-02 8.92699920e-02 4.46349960e-02 1.33904988e-01 0.00000000e+00 0.00000000e+00 0.00000000e+00 1.33904988e-01 8.92699920e-02 8.92699920e-02 4.46349960e-02 1.78539984e-01 4.46349960e-02 1.33904988e-01 1.33904988e-01 1.78539984e-01 1.78539984e-01 4.46349960e-02 4.46349960e-02 1.33904988e-01 4.46349960e-02 2.67809976e-01 0.00000000e+00 1.78539984e-01 4.46349960e-02 1.78539984e-01 1.33904988e-01 8.92699920e-02 0.00000000e+00 0.00000000e+00 2.23174980e-01 2.23174980e-01 8.92699920e-02 8.92699920e-02 2.23174980e-01 8.92699920e-02 1.78539984e-01 8.92699920e-02 1.33904988e-01 2.23174980e-01 1.33904988e-01 2.67809976e-01 1.33904988e-01 1.78539984e-01 3.57079968e-01 8.92699920e-02 1.33904988e-01 8.92699920e-02 4.46349960e-02 8.92699920e-02 4.46349960e-02 1.33904988e-01 0.00000000e+00 8.92699920e-02 4.46349960e-02 4.46349960e-02 8.92699920e-02 4.46349960e-02 0.00000000e+00 4.46349960e-02 1.78539984e-01 4.46349960e-02 8.92699920e-02 0.00000000e+00 4.46349960e-02 4.46349960e-02 1.33904988e-01 1.33904988e-01 8.92699920e-02 8.92699920e-02 4.46349960e-02 8.92699920e-02 1.33904988e-01 8.92699920e-02 8.92699920e-02 8.92699920e-02 2.23174980e-01 8.92699920e-02 8.92699920e-02 1.33904988e-01 0.00000000e+00 2.23174980e-01 8.92699920e-02 4.46349960e-02 2.67809976e-01 1.33904988e-01 4.46349960e-02 4.46349960e-02 2.23174980e-01 1.78539984e-01 0.00000000e+00 1.78539984e-01 4.46349960e-02 3.12444972e-01 0.00000000e+00 4.46349960e-02 1.78539984e-01 0.00000000e+00 0.00000000e+00 4.46349960e-02 8.92699920e-02 2.67809976e-01 1.33904988e-01 8.92699920e-02 8.92699920e-02 1.78539984e-01 1.33904988e-01 1.33904988e-01 1.78539984e-01 4.46349960e-02 -4.46349960e-02 4.46349960e-02 8.92699920e-02 4.46349960e-02 1.33904988e-01 8.92699920e-02 0.00000000e+00 1.33904988e-01 4.46349960e-02 4.46349960e-02 8.92699920e-02 1.33904988e-01 1.33904988e-01 2.23174980e-01 4.46349960e-02 4.46349960e-02 4.46349960e-02 4.46349960e-02 1.33904988e-01 1.33904988e-01 4.46349960e-02 8.92699920e-02 4.46349960e-02 4.46349960e-02 4.46349960e-02 1.33904988e-01 1.78539984e-01 0.00000000e+00 1.33904988e-01 4.46349960e-02 8.92699920e-02 1.33904988e-01 0.00000000e+00 4.46349960e-02 4.46349960e-02 1.33904988e-01 1.33904988e-01 8.92699920e-02 1.78539984e-01 1.78539984e-01 0.00000000e+00 2.67809976e-01 8.92699920e-02 4.46349960e-02 1.33904988e-01 8.92699920e-02 1.33904988e-01 8.92699920e-02 2.23174980e-01 4.46349960e-02 0.00000000e+00 1.78539984e-01 1.33904988e-01 1.33904988e-01 0.00000000e+00 8.92699920e-02 8.92699920e-02 0.00000000e+00 4.46349960e-02 1.78539984e-01 1.78539984e-01 3.12444972e-01 2.23174980e-01 4.46349960e-02 1.33904988e-01 4.46349960e-02 1.33904988e-01 1.33904988e-01 1.33904988e-01 1.33904988e-01 8.92699920e-02 1.33904988e-01 1.33904988e-01 1.33904988e-01 8.92699920e-02 1.33904988e-01 1.33904988e-01 1.33904988e-01 1.33904988e-01 1.33904988e-01 4.46349960e-02 0.00000000e+00 8.92699920e-02 4.46349960e-02 0.00000000e+00 1.33904988e-01 0.00000000e+00 0.00000000e+00 2.23174980e-01 4.46349960e-02 1.33904988e-01 2.67809976e-01 4.46349960e-02 0.00000000e+00 4.46349960e-02 1.33904988e-01 1.78539984e-01 2.67809976e-01 0.00000000e+00 8.92699920e-02 1.78539984e-01 8.92699920e-02 2.67809976e-01 0.00000000e+00 8.92699920e-02 8.92699920e-02 1.33904988e-01 1.33904988e-01 4.46349960e-02 1.78539984e-01 1.78539984e-01 8.92699920e-02 4.46349960e-02 8.92699920e-02 1.33904988e-01 2.23174980e-01 8.92699920e-02 4.46349960e-02 4.46349960e-02 1.78539984e-01 8.92699920e-02 8.92699920e-02 8.92699920e-02 4.46349960e-02 1.33904988e-01 1.33904988e-01 8.92699920e-02 2.23174980e-01 4.46349960e-02 1.33904988e-01 0.00000000e+00 1.33904988e-01 8.92699920e-02 8.92699920e-02 1.78539984e-01 8.92699920e-02 1.33904988e-01 4.46349960e-02 1.78539984e-01 8.92699920e-02 8.92699920e-02 8.92699920e-02 8.92699920e-02 8.92699920e-02 4.46349960e-02 8.92699920e-02 4.46349960e-02 8.92699920e-02 1.78539984e-01 4.46349960e-02 4.46349960e-02 1.33904988e-01 8.92699920e-02 4.46349960e-02 8.92699920e-02 8.92699920e-02 1.33904988e-01 1.33904988e-01 0.00000000e+00 2.23174980e-01 8.92699920e-02 1.33904988e-01 0.00000000e+00 4.46349960e-02 8.92699920e-02 1.33904988e-01 2.23174980e-01 8.92699920e-02 8.92699920e-02 8.92699920e-02 4.46349960e-02 8.92699920e-02 0.00000000e+00 0.00000000e+00 1.78539984e-01 1.33904988e-01 4.46349960e-02 1.33904988e-01 1.78539984e-01 1.33904988e-01 1.78539984e-01 1.78539984e-01 4.46349960e-02 4.46349960e-02 2.23174980e-01 1.78539984e-01 4.46349960e-02 1.33904988e-01 8.92699920e-02 8.92699920e-02 4.46349960e-02 4.46349960e-02 0.00000000e+00 0.00000000e+00 4.46349960e-02 0.00000000e+00 4.46349960e-02 8.92699920e-02 8.92699920e-02 4.46349960e-02 8.92699920e-02 8.92699920e-02 1.33904988e-01 1.33904988e-01 4.46349960e-02 2.23174980e-01 1.33904988e-01 8.92699920e-02 2.23174980e-01 4.46349960e-02 1.78539984e-01 4.46349960e-02 1.78539984e-01 0.00000000e+00 4.46349960e-02 0.00000000e+00 2.23174980e-01 4.46349960e-02 3.12444972e-01 8.92699920e-02 0.00000000e+00 8.92699920e-02 1.78539984e-01 4.46349960e-02 0.00000000e+00 4.46349960e-02 0.00000000e+00 8.92699920e-02 0.00000000e+00 0.00000000e+00 8.92699920e-02 1.78539984e-01 4.46349960e-02 1.33904988e-01 4.46349960e-02 8.92699920e-02 4.46349960e-02 4.46349960e-02 0.00000000e+00 0.00000000e+00 8.92699920e-02 1.33904988e-01 4.46349960e-02 0.00000000e+00 2.23174980e-01 8.92699920e-02 1.33904988e-01 1.33904988e-01 4.46349960e-02 1.78539984e-01 0.00000000e+00 0.00000000e+00 2.23174980e-01 1.33904988e-01 1.33904988e-01 1.33904988e-01 0.00000000e+00 0.00000000e+00 0.00000000e+00 8.92699920e-02 1.33904988e-01 0.00000000e+00 1.33904988e-01 4.46349960e-02 8.92699920e-02 4.46349960e-02 2.23174980e-01 1.33904988e-01 1.33904988e-01 8.92699920e-02 1.33904988e-01 0.00000000e+00 1.33904988e-01 8.92699920e-02 1.78539984e-01 1.78539984e-01 8.92699920e-02 8.92699920e-02 4.46349960e-02 8.92699920e-02 0.00000000e+00 0.00000000e+00 8.92699920e-02 4.46349960e-02 1.78539984e-01 1.33904988e-01 0.00000000e+00 0.00000000e+00 8.92699920e-02 4.46349960e-02 8.92699920e-02 1.33904988e-01 1.33904988e-01 8.92699920e-02 0.00000000e+00 8.92699920e-02 8.92699920e-02 1.33904988e-01 8.92699920e-02 8.92699920e-02 1.78539984e-01 1.33904988e-01 1.33904988e-01 4.46349960e-02 1.33904988e-01 8.92699920e-02 4.46349960e-02 8.92699920e-02 1.33904988e-01 4.46349960e-02 1.33904988e-01 1.78539984e-01 1.78539984e-01 4.46349960e-02 1.33904988e-01 1.78539984e-01 8.92699920e-02 8.92699920e-02 4.46349960e-02 1.33904988e-01 4.46349960e-02 8.92699920e-02 1.33904988e-01 0.00000000e+00 4.46349960e-02 4.46349960e-02 4.46349960e-02 0.00000000e+00 8.92699920e-02 